77 20
0 0.014565563 0.084642395 0.56691206 0.29156548 -0.37324882 0.12924443 0.049345553 0.43687183 -0.48921794 -0.1047257 0.19805571 0.14373578 -0.007997904 -0.0785125 0.1795953 -0.06493391 0.649392 0.06533235 -0.5150256 -0.27169552
2 -0.034544602 0.25864658 0.6108558 -0.004201908 0.07085702 0.04283851 0.2908934 0.48622605 -0.36120135 -0.2070624 0.39657423 -0.057516787 0.12928367 -0.20103204 0.10466984 0.16055289 0.6641955 0.06556245 -0.27676296 0.030687165
17 -0.46568152 0.25864673 0.33868363 0.33423552 -0.27040717 -0.2862133 -0.59060824 0.9649782 -0.14331701 0.21079426 0.09767656 0.21102832 -0.050879493 -0.68785137 1.0779014 -0.21906304 1.0554651 0.05801849 -0.30833006 -0.41991553
12 -0.091512546 0.060590647 0.4878447 0.04163735 -0.19648395 0.056362223 0.2336648 0.48063132 -0.3960754 -0.06895379 0.35838363 0.0306322 0.031944077 -0.09634297 0.11113746 0.040483054 0.5817321 0.01282178 -0.35690743 -0.21653728
6 -0.19050896 0.24928929 0.65560853 -0.12528938 0.34296978 0.0035143006 0.405361 0.43089524 -0.39996114 -0.17915285 0.67034525 -0.2007568 0.11225494 -0.33819237 0.18562718 0.3638716 0.6014441 0.1552617 -0.11161446 0.24257086
4 -0.08981944 0.052466057 0.67254454 0.11560102 -0.13429552 0.082822666 0.13590522 0.4057227 -0.5647752 -0.13398981 0.3499739 -0.09370011 0.026243508 -0.01383413 0.15791926 0.0146711925 0.46810022 0.1466531 -0.38522494 -0.32136974
7 -0.15666927 0.23293294 0.6508556 -0.23181401 0.4444565 0.03265528 0.3587416 0.44122174 -0.36074626 -0.19141269 0.70261693 -0.21481587 0.097845286 -0.38044524 0.13787217 0.39829895 0.69377935 0.24171808 -0.049570974 0.34119013
1 -0.1438908 0.16894186 0.55359036 -0.13143015 0.3821664 0.030501958 0.36829633 0.4121456 -0.3945712 -0.224162 0.7287487 -0.25422382 0.11908649 -0.31319654 0.17605206 0.47815698 0.72609985 0.2624755 -0.052625082 0.25640687
5 -0.1944224 -0.50834244 0.33446106 0.029829593 -0.34265944 -0.30065945 0.40233275 0.6677909 -0.48478264 0.33223605 0.5625522 -0.15563463 -0.012498448 0.0058695204 0.069773026 -0.09765156 0.35165235 -0.24872339 -0.11166091 -0.94090664
8 -0.25444984 0.26266968 0.61405396 -0.22579204 0.45397997 -0.043139424 0.38704818 0.40271252 -0.3352733 -0.22911985 0.7119172 -0.22319293 0.10750637 -0.41438276 0.13512565 0.41433677 0.6834881 0.1930453 -0.09880853 0.27209565
3 -0.08500393 0.00013992342 0.45627898 0.09476177 -0.12989558 0.08610742 0.10247553 0.4208296 -0.52108204 0.0062480695 0.30921245 -0.0420326 0.081250966 -0.09806975 0.18151306 -0.031143919 0.53345644 0.110494785 -0.3539436 -0.3265435
15 -0.22123064 0.25345978 0.60608786 -0.22120881 0.46882865 -0.00084139535 0.4165216 0.45880586 -0.40965313 -0.23373893 0.69606656 -0.23416889 0.071920276 -0.38424978 0.10494022 0.4057078 0.69498575 0.24166974 -0.090075985 0.3031827
45 -0.38067576 0.20056373 0.35523328 0.36887106 -0.2343736 -0.2200957 -0.44952613 0.7582222 -0.19100018 0.10847768 0.115884006 0.13572413 -0.058714524 -0.61180705 0.8222485 -0.19611903 0.8607272 0.09493193 -0.28340077 -0.4419219
11 -0.041151483 0.04104391 0.6460004 0.1083578 -0.21385913 0.13966565 0.17940338 0.41248214 -0.501351 -0.065915 0.3298333 -0.024099788 0.07527409 -0.064356685 0.13573132 0.023586404 0.51027536 0.122221366 -0.36370838 -0.2654552
44 -0.34987253 0.15227433 0.32647458 0.3061995 -0.21253835 -0.27721867 -0.47243834 0.7519025 -0.11758846 0.12621745 0.1303808 0.17278846 0.026040565 -0.6091629 0.9254887 -0.11607244 0.9225307 0.11444226 -0.19118059 -0.44714484
33 -0.102040425 0.2953647 0.62802815 0.08022933 -0.109156385 0.029750783 0.28683907 0.60280347 -0.21852559 -0.23990373 0.44276977 0.08229196 0.119920954 -0.18162784 0.26301414 0.1103135 0.7729476 -0.06356296 -0.44320905 -0.0257286
32 -0.045262106 0.19039284 0.6247708 0.15121588 -0.19541965 0.061259434 0.28842378 0.5423565 -0.23217645 -0.15951666 0.3575847 -0.001654525 0.0066533126 -0.12939289 0.19947739 0.15575877 0.71747583 -0.016834369 -0.38996178 -0.015555544
10 -0.17200172 0.26634046 0.619303 -0.22249027 0.49850905 -0.010179593 0.4248619 0.424271 -0.35297126 -0.22702673 0.72521925 -0.22279227 0.05611982 -0.43147877 0.10067894 0.41931307 0.6693935 0.24678259 -0.025003027 0.2600552
16 -0.17179674 0.2623847 0.6109452 -0.19517969 0.4509715 -0.047006004 0.37087175 0.4705949 -0.33682662 -0.2605657 0.69057614 -0.21305516 0.09382815 -0.3152004 0.121661365 0.3718387 0.61745965 0.22988583 -0.09356728 0.28480458
9 -0.20273401 0.23796354 0.55363864 -0.16556652 0.39175445 -0.03658611 0.4051382 0.42648503 -0.33096644 -0.23643857 0.5982523 -0.1973433 0.09223499 -0.36257032 0.18425678 0.36363813 0.635522 0.14653774 -0.05990148 0.21401477
29 -0.25169775 -0.77438086 0.22171395 -0.040506206 -0.35560572 -0.49009 0.49905622 0.83922964 -0.5556279 0.5219954 0.7046267 -0.13580593 -0.11736067 -0.034285955 0.028477374 -0.07092489 0.33390552 -0.3268886 0.03850379 -1.2282742
20 -0.05098151 0.057377893 0.72371626 0.07615707 -0.07209161 0.15279777 0.15505682 0.34213075 -0.56478715 -0.16603252 0.42279607 -0.08616608 0.06873908 -0.15547675 0.17817228 -0.01602903 0.4019067 0.16208716 -0.34278467 -0.1820903
30 -0.20565243 -0.79420924 0.22887671 0.0252331 -0.3352101 -0.5599484 0.5241157 0.8296083 -0.4939644 0.42807698 0.7776798 -0.15314263 -0.019058177 -0.08616608 0.05991331 -0.0792377 0.31322718 -0.39925802 -0.0063594664 -1.2114447
22 -0.16967133 -0.68739426 0.27000982 -0.017514363 -0.3439091 -0.459869 0.49175283 0.796142 -0.48949587 0.45556548 0.632931 -0.108033374 -0.07898428 -0.03674018 0.06986098 0.00042742508 0.33586004 -0.25228864 0.028993761 -1.0793661
26 -0.2565153 -0.7943329 0.24690475 -0.07188177 -0.3606453 -0.5511994 0.5530397 0.79511315 -0.5401406 0.43432692 0.747687 -0.21108699 -0.04279953 -0.054125156 0.030889343 -0.0720125 0.34134108 -0.3159602 0.04020552 -1.1135638
19 -0.11947075 0.09589386 0.7140374 -0.029411428 -0.12444011 0.14868878 0.20528728 0.34198055 -0.60637 -0.18942332 0.38090926 -0.12980726 0.02609294 -0.13468705 0.10223236 -0.03621613 0.37235746 0.10657893 -0.37256098 -0.26599532
28 -0.25540873 -0.77237016 0.27152696 0.0011576815 -0.38500357 -0.5371427 0.5321976 0.7348924 -0.4829609 0.49106732 0.7661301 -0.23251371 -0.09046121 -0.06587788 0.022843502 0.0066921315 0.34176147 -0.3298919 0.043158524 -1.1652067
31 -0.15712072 -0.74921334 0.19839059 -0.041776557 -0.34421754 -0.50757515 0.43990314 0.8398853 -0.4904283 0.43673033 0.70526373 -0.19081688 -0.029526783 -0.017462157 0.01776535 -0.040230755 0.39080942 -0.37352198 -0.03998573 -1.1552883
13 -0.034456573 0.093526386 0.71058047 -0.003572946 -0.02441873 0.11236954 0.20673257 0.40555078 -0.531089 -0.20543398 0.42578155 -0.042638563 0.11517074 -0.097086534 0.13804609 0.13259381 0.45861292 0.14125296 -0.32190755 -0.13855451
27 -0.17341237 -0.6835434 0.3034254 -0.091975406 -0.3025807 -0.49426946 0.42553058 0.8003311 -0.4889014 0.41231695 0.72839993 -0.11602229 -0.10313147 -0.06836006 0.10948247 -0.0042084544 0.33009025 -0.32951814 0.0075061037 -1.0557096
41 -0.06753285 -0.027586583 0.5296212 0.19519171 -0.25743258 0.08106032 0.1404955 0.45059055 -0.48253182 -0.020152502 0.38042787 0.04309946 0.030503986 0.045143645 0.0971425 0.0020511549 0.7230322 0.13820209 -0.36772218 -0.32502332
36 0.22413296 -0.19654234 0.6737111 0.32732075 -0.46091145 0.26760545 0.014039972 0.3352317 -0.73125637 -0.069832675 0.22048914 0.38631907 -0.013785359 -0.12533839 0.11873861 -0.015078973 0.6658528 -0.12374411 -0.6126366 -0.40036967
21 -0.03560628 0.03698776 0.69821656 -0.028597267 -0.008813597 0.13844018 0.14139417 0.32134044 -0.53513426 -0.15059304 0.43395332 -0.15679094 0.014709418 -0.12084716 0.096959434 0.009921122 0.44874707 0.081335485 -0.33464196 -0.26283565
37 0.23539086 -0.27976072 0.64689696 0.34017035 -0.5357389 0.28064287 0.0010551806 0.3345183 -0.81783247 -0.06399506 0.18799579 0.40051553 -0.03714403 -0.09036681 0.1738267 -0.06830751 0.72348124 -0.085067004 -0.61957073 -0.37473872
39 0.25400338 -0.22261651 0.57514226 0.3333877 -0.47687268 0.22880277 0.06552684 0.32962525 -0.78272825 -0.063063525 0.17731258 0.3340809 -0.033390686 -0.12522238 0.13139373 -0.017798774 0.73346716 -0.12516122 -0.5903385 -0.33035395
38 0.29660675 -0.25094122 0.6328365 0.38262948 -0.5182858 0.26914066 0.026143959 0.31347507 -0.782826 -0.08056073 0.1532122 0.36291212 0.0022115663 -0.13554247 0.12898855 -0.017078573 0.7136904 -0.113960415 -0.61261344 -0.43262768
40 0.2164623 -0.16876574 0.61144245 0.25035894 -0.47909865 0.26816052 0.023842232 0.38789457 -0.76305777 -0.015082569 0.17932893 0.33585382 -0.02255479 -0.18612161 0.12764354 -0.003284525 0.6586269 -0.09700636 -0.58286434 -0.33726573
14 -0.09206426 0.14272 0.64926356 -0.092461914 0.3474636 -0.05930026 0.29017985 0.47968277 -0.34620932 -0.1637661 0.5959572 -0.14882831 0.17084415 -0.40360004 0.13977225 0.39585674 0.61913294 0.1827174 -0.14497812 0.13114665
25 0.19800979 -0.19520544 0.5167774 0.30731604 -0.39794633 0.21082768 -0.0019722006 0.42601606 -0.66631794 -0.055346023 0.2200356 0.25127402 0.005189309 -0.1337839 0.117508404 -0.020235596 0.6678837 -0.11620618 -0.47610006 -0.41459933
23 -0.19187865 0.16494863 0.5033761 -0.1263324 0.3283501 -0.03479921 0.34848094 0.48609656 -0.30962235 -0.1782734 0.6176742 -0.18137386 0.037012566 -0.29665712 0.13349307 0.32471105 0.60929817 0.13291568 -0.07388339 0.11717146
34 -0.13085417 0.12823541 0.6854369 0.061139524 -0.013389561 0.1289269 0.19955987 0.3145772 -0.5611699 -0.12372501 0.4224936 -0.14286605 0.10371635 -0.14415044 0.20011507 0.032649547 0.38995242 0.12576108 -0.3497399 -0.2479182
24 -0.08248397 0.12584113 0.6864091 -0.039080385 0.02125024 0.10546702 0.18658969 0.30138376 -0.49769124 -0.18837757 0.4738387 -0.13898057 0.08760053 -0.08814582 0.13140899 0.11287241 0.4455102 0.16700587 -0.26622263 -0.22004831
18 -0.19141552 0.20871958 0.52623874 -0.15912572 0.347358 -0.04430028 0.32896137 0.45033547 -0.3520957 -0.18886366 0.6149845 -0.18017533 0.07813969 -0.35953736 0.17080669 0.3224621 0.6195103 0.17445914 -0.03991992 0.14483583
42 -0.13833061 -0.21657541 0.5017537 0.05588448 -0.2659365 -0.10479168 0.17123121 0.6018235 -0.56904286 0.08159372 0.36363974 -0.024837889 0.060256846 -0.03580334 0.09311327 -0.044379022 0.44912153 -0.122121766 -0.3223727 -0.5054718
59 -0.19475277 -0.04324772 0.5743537 -0.03326958 0.39439034 -0.07394216 0.27258524 0.40879104 -0.49091133 -0.16320053 0.67031074 -0.20143855 0.13075018 -0.28653726 0.33765203 0.6162315 0.757645 0.24736981 0.087951444 -0.08423795
58 -0.22890913 -0.05439394 0.45204374 0.028911594 0.31354666 -0.14097652 0.2151614 0.5127612 -0.48301405 -0.19460884 0.67990494 -0.20233378 0.0916343 -0.28274626 0.26605737 0.5968691 0.77489996 0.116160855 0.088046 -0.107983
54 -0.1803715 0.13798417 0.49646753 -0.05974912 0.32241684 -0.102461696 0.22989139 0.6056102 -0.47257414 -0.17724255 0.78067005 -0.11675312 0.15490407 -0.20334502 0.13973978 0.41463232 0.77191377 0.22598341 -0.053783286 0.07927919
35 -0.14683329 0.193632 0.51574385 -0.15137206 0.3086982 -0.026066285 0.29089215 0.4757558 -0.32936114 -0.1146551 0.6196168 -0.12329473 0.07693147 -0.28336406 0.17513312 0.27319258 0.595153 0.14305542 -0.060658526 0.114273004
47 -0.100659154 0.1121566 0.65183765 0.053134773 -0.103116736 0.03235213 0.14209531 0.35776672 -0.4584228 -0.13302284 0.39826676 -0.021710195 0.04385295 -0.18793544 0.18625322 0.03237174 0.5116774 0.08535527 -0.25411364 -0.20688106
43 -0.0459381 0.12772515 0.58192277 0.10830439 -0.094783545 -0.028702408 0.24021791 0.5765017 -0.26708585 -0.104917966 0.39635292 0.05554003 0.07306304 -0.1331509 0.24387904 0.091102995 0.64546317 0.021532755 -0.26834756 -0.12104237
65 -0.20680045 0.095580585 0.38269126 0.17913452 -0.21746221 -0.22510536 -0.28360477 0.64274126 -0.20467219 0.035415765 0.21821804 0.07815503 0.028335346 -0.46805888 0.6562136 -0.060335014 0.7000381 0.05061236 -0.1769729 -0.40805048
46 -0.11189492 0.053391412 0.6357466 0.06436137 -0.17285958 0.058254555 0.21321163 0.45805055 -0.3217681 -0.071539335 0.3948686 -0.01144492 0.1179339 -0.090548515 0.24079137 0.11560568 0.63250726 0.004176428 -0.36698937 -0.20042212
48 -0.10740915 -0.009475591 0.4728037 0.14954731 -0.22016461 -0.040941443 0.14940552 0.4850261 -0.46342903 -0.022841634 0.33100674 -0.016621424 -0.006593944 -0.10222449 0.18749563 0.025373051 0.5448436 0.015218645 -0.26712498 -0.27152455
53 -0.19424446 -0.015423499 0.5404484 0.16059168 -0.2595979 0.06188739 0.110673584 0.43535885 -0.44188455 -0.023465281 0.41966236 0.06538853 0.03159731 -0.016736712 0.14989737 0.10546736 0.67931116 0.016283683 -0.35874486 -0.23001532
56 -0.017093047 0.21120045 0.6570323 0.15020117 -0.1817546 0.041744437 0.18738183 0.5856439 -0.27040306 -0.09194927 0.48323584 0.023538703 0.045820918 -0.11446229 0.18166502 0.1080177 0.7597943 -0.037363417 -0.30131403 -0.22764406
51 -0.067405395 -0.1800945 0.37271926 0.09889355 -0.2243694 -0.20735678 0.20832999 0.6093848 -0.4860583 0.115795024 0.47222355 -0.038525227 0.0022261222 -0.09809097 0.17979802 -0.06694621 0.42293075 -0.14914313 -0.23467639 -0.615339
49 -0.09611601 0.0094181 0.5145675 0.044254616 -0.18954408 -0.0073967795 0.14235426 0.46216545 -0.35904986 -0.07567813 0.31988195 -0.044109754 0.038868755 -0.1182754 0.161333 0.06505653 0.5567549 0.03866363 -0.33173817 -0.20387922
73 -0.19505757 0.0013191666 0.52333444 0.21800557 -0.2588681 0.034588628 0.1570041 0.45889083 -0.44548592 0.038142283 0.36293283 0.022969395 0.073912635 -0.025615266 0.11734092 0.031563748 0.64962965 0.086977534 -0.36537352 -0.27274346
55 -0.043546874 0.115065664 0.55474526 0.060363863 -0.14848986 0.08555797 0.22434722 0.4963887 -0.42055675 -0.11298564 0.3262876 0.07666986 0.08284141 -0.10259609 0.18342276 0.1035166 0.52048194 0.0873069 -0.3343995 -0.18915462
50 -0.13727687 -0.20130704 0.3299518 0.031910777 -0.17095138 -0.15675592 0.20977461 0.5133441 -0.38979834 0.17349389 0.47000295 -0.082679965 -0.048108257 -0.062086426 0.15203506 -0.036290985 0.39879096 -0.114592716 -0.2059701 -0.55509424
66 -0.27169487 0.107031666 0.41516712 0.19730574 -0.14267331 -0.17477624 -0.30352995 0.6803288 -0.12778538 0.040756226 0.15210833 0.069701664 -0.05409196 -0.51118773 0.6731461 -0.12003082 0.73595005 0.10334307 -0.15426955 -0.3738951
52 -0.13005796 -0.025587006 0.48482406 0.14046958 -0.1556436 0.008098898 0.09507022 0.529101 -0.43460715 0.038314648 0.33014324 -0.010175664 0.03278977 -0.14478773 0.168506 -0.017214488 0.51949203 -0.016730294 -0.25763384 -0.31342497
60 -0.21679604 0.10402394 0.3925512 0.18765213 -0.20628612 -0.19938466 -0.11388883 0.5797388 -0.2932376 0.08006547 0.29188204 0.043294597 0.0062423237 -0.4184107 0.5483684 -0.056673348 0.6788876 0.063965194 -0.17368805 -0.3107469
76 -0.21122393 0.07311929 0.5784236 -0.072980314 0.18126985 -0.022313336 0.32134128 0.40367272 -0.3908292 -0.11414341 0.5588352 -0.05773912 0.096664205 -0.32708198 0.16327879 0.23324345 0.57344776 0.04564479 -0.18583897 0.033084694
74 -0.26196557 0.13652314 0.52761614 0.07827455 0.11633656 -0.07045407 0.33808827 0.5097606 -0.5094528 -0.10992455 0.6861684 -0.15258697 0.16796373 -0.34034044 0.26960567 0.30193907 0.83396614 0.23404153 -0.047927864 0.046913758
64 -0.2925857 0.16640419 0.34046382 0.1982345 -0.16348617 -0.2016392 -0.2811358 0.5749049 -0.22623478 0.04828144 0.19217655 0.10987485 -0.048729833 -0.47972202 0.6776495 -0.015508101 0.7527556 0.11154432 -0.18481034 -0.359984
62 -0.18077041 0.093770735 0.45110604 0.21402419 -0.107201666 -0.099643506 -0.19300179 0.55530196 -0.24895737 0.069735765 0.30030757 0.08646305 0.042399727 -0.41159558 0.5650294 -0.04474853 0.62944853 0.113337174 -0.20335807 -0.3435927
63 -0.22975893 0.069986515 0.41781178 0.2153951 -0.16113982 -0.18320416 -0.18558376 0.5953653 -0.22000484 0.029386178 0.24271542 0.0678834 -0.030694785 -0.36873835 0.5302341 -0.023969455 0.7043789 0.06697024 -0.22053663 -0.28843376
61 -0.2067184 0.12563774 0.40399644 0.2672659 -0.14376381 -0.18990992 -0.18701011 0.6457589 -0.18924025 0.05563107 0.20640534 0.070327714 -0.04761083 -0.4164151 0.6635872 -0.019402817 0.697752 0.093687594 -0.18412451 -0.391806
57 -0.07388863 0.0919642 0.54119223 0.06664557 -0.03032718 0.01621543 0.24204938 0.5066615 -0.2986653 -0.15581185 0.4283121 0.04071774 0.057720117 -0.18865131 0.16647166 0.09868157 0.6277098 0.01114792 -0.28924182 -0.056829505
75 -0.031110726 0.18334502 0.53797525 0.04234442 -0.045989376 -0.02447535 0.24150565 0.54757804 -0.22516572 -0.15849632 0.4471023 -0.025319561 0.007506642 -0.21689717 0.18246035 0.14949119 0.6928683 -0.011709583 -0.2676086 -0.15881751
67 -0.06762493 0.0065521593 0.49033067 0.05643707 -0.15259433 -0.0014022366 0.16640832 0.46947762 -0.39448872 -0.0380459 0.35292098 -0.041401822 0.03613222 -0.19382136 0.1608275 0.0095755095 0.59956586 0.06333652 -0.2552859 -0.24701509
72 -0.027849926 0.021688795 0.5633826 0.08520153 -0.08393694 0.08434459 0.114664935 0.3724971 -0.42916468 -0.048065078 0.36406186 -0.011425778 0.06656071 -0.16867276 0.14136147 -0.0015867506 0.5146484 0.095086165 -0.2740698 -0.21765287
70 -0.15151486 -0.047137436 0.46946615 0.10881953 -0.10267256 -0.00020775516 0.13814962 0.44497716 -0.38394767 -0.036503397 0.32833233 -0.061522335 0.05826722 -0.14962636 0.16579893 0.013797935 0.5811593 0.030639507 -0.22972259 -0.2429401
71 -0.14341915 0.0011063851 0.42164123 0.037297785 -0.08617013 -0.022446688 0.1440798 0.46050128 -0.36454958 -0.040356297 0.35506773 0.0045893556 0.052391555 -0.12461997 0.19736849 0.01059547 0.50203776 0.061399672 -0.2507982 -0.19379121
68 -0.15023479 0.0031359366 0.4742939 0.10680485 -0.12178383 -0.059314575 0.12637362 0.4852279 -0.41530898 0.0214357 0.36469823 -0.07444368 0.003226977 -0.13236186 0.1493837 0.0406961 0.51628745 0.057038534 -0.21378279 -0.23743604
69 -0.12003185 0.017446449 0.39658636 0.07045039 -0.15465909 -0.03197453 0.12733027 0.490898 -0.3678308 -0.055304606 0.30607453 -0.04412273 0.03833106 -0.095655635 0.14269647 0.09016761 0.5637573 -0.014512389 -0.2812728 -0.19563858
