77 128
0 0.1719505 -0.09836792 0.21711397 0.06517726 -0.058050986 -0.119644955 0.07879436 0.1427709 -0.17079051 -0.051847134 0.24213044 -0.15965302 -0.17867379 0.055317443 0.15727049 0.07126082 0.024042984 0.14362748 -0.083266154 -0.13819864 0.08779927 0.29348636 0.13794845 -0.12057832 -0.09286428 -0.09430929 -0.013405502 0.025800247 -0.01596363 -0.19888024 -0.06567515 0.037568416 0.11784967 -0.06148332 -0.12337432 -0.08154764 0.17052056 0.15754691 -0.07141995 -0.048488457 -0.12909912 0.068426065 -0.10513937 -0.050715923 0.10013584 0.022381205 -0.15073113 -0.022643879 0.13905056 0.093704976 -0.14415662 -0.012538798 0.119990654 -0.015700094 0.31543124 0.26865095 0.2680483 -0.113359235 -0.09330808 -0.017988957 0.1704687 -0.130703 -0.087778226 -0.07757266 0.15279576 0.07409344 0.06860129 -0.028591594 0.08013162 -0.16260435 0.23111314 0.18976511 -0.08370637 -0.25095853 0.10491667 0.10358546 0.096430205 0.0035855032 -0.101552635 0.042125184 0.069666356 -0.047384642 0.020430785 0.15760641 -0.02538529 -0.103985004 0.1025305 -0.16340746 0.11927939 0.1726502 -0.09191934 -0.17855282 0.02866396 0.019245278 0.2860512 0.23362932 -0.24199176 -0.1560888 -0.023673447 -0.07910342 -0.046664327 -0.08400437 -0.04450808 -0.014986415 -0.087310344 -0.054572705 0.05303818 0.03605252 -0.056472115 -0.15972947 0.075260095 -0.111233085 0.1962339 0.14213385 -0.12015586 0.024601907 0.14411268 0.24240255 0.046099536 0.08822445 0.023657518 -0.124567784 0.085698314 0.13210346 0.017384589 0.22813547 -0.14382046 0.1716006
2 0.16628012 0.0056267506 0.25084713 0.05648642 -0.0062317057 -0.0349761 0.056770794 0.022855483 0.06268535 0.068832524 0.07897536 0.048657905 0.0013045633 -0.16427988 0.13968107 0.05829018 0.06639495 0.20310356 -0.057613626 -0.043517075 0.13161205 0.12311971 0.12314747 -0.03185207 -0.15642178 0.08088768 -0.09213146 0.1428367 0.09325293 -0.013855645 -0.14782162 0.1781084 -0.04635785 0.04652953 -0.0823662 0.0116788205 0.31440422 0.08169655 0.26828477 -0.092760384 0.13838506 0.13920583 -0.100228935 -0.13111076 0.07271085 0.06300352 -0.05959887 -0.18185186 -0.11899302 -0.0044185296 0.0963512 -0.072836496 0.21763277 0.07552724 0.10821447 -0.015930591 0.13105625 0.113311276 -0.15758786 -0.06945539 -0.03873123 -0.032098275 0.08709405 0.13751094 0.025690168 -0.09345136 0.0818193 -0.1166161 0.018827286 -0.1629595 -0.13621043 0.09839095 -0.096417665 0.07009284 -0.1381582 -0.06625553 0.03781702 0.07957882 -0.07789117 0.11204443 0.10841993 -0.08256062 0.0414619 0.30804136 0.14497577 -0.03964488 0.4104453 -0.22279191 0.25628132 0.37948897 -0.16665755 -0.28692496 -0.08257454 -0.0531008 0.09459039 -0.07382883 -0.27713138 -0.21722288 -0.00074348756 -0.068045564 -0.09632164 -0.035456397 0.047338575 0.04590356 0.06408952 -0.083884224 -0.04359335 -0.07513686 0.029053498 -0.09420775 0.007838466 -0.15766269 0.14744851 -0.06890881 -0.104449466 -0.023975583 0.06534628 0.2627835 0.031118657 0.05256159 -0.057344764 -0.123566635 -0.0020466277 0.01666655 0.0037010023 -0.06695467 -0.21947739 0.10874201
6 -0.035482846 -0.116381615 0.15557532 -0.03898215 0.094881594 -0.22037727 0.034864645 0.16588406 0.036110535 0.12852295 0.15082075 -0.113113776 -0.19321379 -0.118519135 -0.034715917 0.14739546 0.002842679 0.1555385 -0.15139958 0.17854844 0.2894568 0.26918218 0.13345487 -0.06019049 -0.08942646 0.0074936426 -0.1624515 0.029020116 0.15436538 -0.11296293 -0.32829845 0.0456644 -0.031581797 0.13081376 -0.110369146 0.20655113 0.44233927 0.02904302 0.28522897 0.060589094 0.04076481 0.07029439 -0.042992458 -0.06720292 -0.036338322 0.21245678 -0.06400896 -0.1324592 -0.13395622 -0.11837333 0.07009851 0.19933693 0.15689729 0.13673764 0.11525067 0.26387045 0.27786708 0.023054088 0.06792105 -0.036676265 0.015327079 -0.16796403 0.21402168 0.024020353 0.12798868 0.060567837 0.28547317 0.033883538 -0.14249614 0.07506537 0.0009656056 -0.02537107 -0.26227093 -0.068019986 -0.07282869 -0.20265731 -0.12560967 0.054686643 0.013967483 0.2118317 0.09533176 -0.12675479 0.039761085 0.182559 0.22594312 0.09827668 0.23026888 -0.027278062 0.046507914 0.27885956 -0.059521016 -0.15789865 -0.11137903 -0.09860695 0.13624048 -0.07495596 -0.24849325 -0.259892 -0.09347344 -0.030770434 -0.17485641 0.22785133 0.018174594 0.0672914 0.30585513 0.0024177239 0.08980641 -0.31939262 -0.024592716 -0.28065324 -0.050684225 -0.033512194 -0.025982825 -0.061616547 0.11637424 -0.079522386 0.06827027 0.20502962 0.13999346 0.013832131 -0.15069856 -0.061891686 -0.040019274 0.13058493 -0.03762503 -0.015755698 0.0010084423 0.097440176
7 -0.00024049521 -0.08294251 0.2434755 -0.039861143 0.06903849 -0.2537064 -0.06551024 0.070706494 0.17442209 0.051894862 0.19133967 -0.16597323 -0.074037485 -0.30365616 -0.010668555 0.08027349 0.008250456 0.1220819 -0.12281441 0.050371733 0.30269524 0.23497435 0.16408332 -0.0588298 -0.10506103 0.18081018 -0.1496901 -0.0072576096 0.16311905 -0.07311743 -0.43425998 0.05268543 -0.08804167 0.13293515 -0.026635306 0.21903239 0.42203704 0.048759688 0.35427094 -0.022351313 0.027523745 0.08599432 -0.01716588 -0.06579676 0.06596278 0.15420793 -0.07515923 -0.21691516 -0.19265182 -0.09245569 0.14602247 0.15036003 0.18826227 0.18277708 0.07819758 0.15731145 0.1961457 0.075498134 -0.083917156 -0.013173324 -0.064036325 -0.10452958 0.25459552 0.05252694 0.10003689 -0.009643448 0.2160906 0.014389443 -0.05294578 0.018770613 0.0010360453 -0.06872408 -0.39862365 0.015634712 -0.19731084 -0.22828846 -0.0722191 0.02170233 0.029912526 0.28735813 0.049970172 -0.16413744 0.1806469 0.25921038 0.22379844 0.05297542 0.21834125 0.00016184332 0.088480964 0.11658782 -0.059080422 -0.13473289 -0.111339554 -0.05730916 0.20187576 -0.07595617 -0.18558832 -0.16077289 -0.047474265 -0.083791 -0.103266485 0.14327675 0.06258383 0.15983848 0.18161507 -0.110934444 0.037826166 -0.2575097 -0.07330065 -0.1947575 0.007675256 -0.008576799 -0.03868651 -0.0108745275 0.04095662 -0.09373339 0.011423093 0.09052398 0.053594287 -0.004664546 -0.106435336 -0.11435648 0.030232389 -0.009067902 0.020401621 -0.1022543 -0.0009796179 0.041406866
12 0.10258613 -0.17756313 0.07262501 -0.13717857 -0.03209969 -0.05063189 0.033226173 -0.06941179 -0.17736505 -0.006146073 0.17356639 0.050669454 -0.1830036 -0.07719888 0.17646888 -0.09739562 0.080117345 0.22847539 0.006700811 -0.13047422 0.1418371 0.16820681 0.11029805 0.012455474 -0.1326629 0.07237739 -0.12531006 0.035618845 0.17776091 -0.16536824 -0.2919482 0.075519145 0.05787709 0.069115415 -0.05040875 0.0072142687 0.23302417 0.07798137 0.121554025 -0.070343494 0.07466726 0.21752477 -0.14203846 -0.060279578 0.15166876 -0.09437807 -0.0589893 -0.2733982 0.06639685 0.06838578 0.086204164 -0.13204256 0.18903893 0.04811406 0.16678767 0.10516389 0.021216396 -0.08983977 -0.12663226 0.009685227 0.19110046 -0.05811609 0.0066062594 0.21125302 0.06725833 0.060839597 0.05908555 0.06677954 0.087091476 -0.3715343 0.19536841 -0.05159808 -0.20302811 -0.24030869 -0.054250028 0.12270338 0.023615832 0.0020113508 -0.12534794 0.25516835 0.09807472 -0.08301213 0.13540553 0.21953292 -0.023216676 -0.02949935 0.22203395 -0.28887042 0.18544479 0.09006339 -0.13861033 -0.15105587 -0.013959041 -0.060459312 0.35013825 0.06544972 -0.22379266 -0.1742095 0.027052104 -0.06891848 0.07800019 -0.02678361 -0.009489464 -0.0111309085 0.0025132108 0.060309414 0.02097633 -0.0041262037 0.087814495 -0.06845881 0.04739759 -0.06105175 0.098107666 0.04708482 -0.0811663 0.042176258 0.06820584 0.05902979 0.11112967 0.18333562 -0.0582887 0.019419046 -0.040056597 -0.0069093755 0.007780862 -0.04083871 -0.16005021 -0.051701866
4 0.2777506 -0.20177965 0.16060625 -0.0019724593 0.045961007 0.023931954 -0.11607787 -0.14337346 -0.084835775 0.060506977 0.1744793 -0.24513137 -0.091529466 -0.05610689 0.20286967 0.02404588 0.02475438 0.18948075 -0.24965194 -0.2055387 -0.11592201 0.0855181 0.09764095 -0.0027971724 -0.08113882 0.09838111 0.0074382145 0.11765846 -0.15938182 -0.06335699 -0.15630718 0.1901061 0.03315005 0.17936978 -0.05957284 0.0031545511 0.43878475 0.24117306 0.20745936 -0.005527902 -0.022992842 -0.042570468 0.012853235 -0.074006446 0.03446289 -0.17720261 -0.11851093 -0.118754275 -0.03816733 0.17140035 0.047173735 -0.062815115 0.28665358 0.10884437 -0.049635466 0.053972095 0.27105367 -0.1157168 -0.12549967 0.30886802 -0.051357824 0.045831524 -0.092026316 0.07173683 -0.087258965 0.26170656 -0.1291671 -0.23343582 -0.3923077 -0.25028834 0.1791076 -0.14780793 -0.17261255 -0.17624976 0.18417051 -0.13250457 0.025736002 -0.03979501 -0.18597753 0.11963503 0.13714941 -0.09791505 0.06742903 0.11434676 -0.21172261 0.083396904 0.24203864 -0.004279638 0.012372285 0.3132489 -0.1918008 -0.114244245 0.13144945 -0.09665747 0.016320424 0.10646402 -0.27093014 -0.20443457 -0.25453886 -0.09244359 0.15273543 -0.11137351 0.024012111 0.19681755 0.19926018 -0.10825072 -0.12615359 -0.041213915 0.06295143 0.056528907 -0.021168567 0.0066297515 0.41765204 -0.07099916 0.026255565 0.0094859395 -0.28159672 0.11517436 -0.094588935 -0.046710886 0.13880986 -0.067927845 -0.05323355 0.1789135 0.102606624 0.1049754 -0.12397441 0.19028047
15 0.02119669 -0.033300307 0.1861876 -0.066355534 0.101959825 -0.24894077 -0.05681979 0.1684164 0.15947679 0.04643244 0.17698506 -0.17485797 -0.08610403 -0.20897922 -0.089404576 0.16450551 -0.074385986 0.12120212 -0.074245356 0.09923222 0.36884078 0.19190992 0.22835493 -0.086087845 -0.070013225 0.12968104 -0.15017827 0.0368929 0.14260356 -0.06867158 -0.40718362 0.022807833 -0.07521405 0.09058817 -0.016682753 0.24041544 0.43900302 0.019966694 0.3915855 -0.048787273 -0.006746483 0.13018358 -0.06638786 -0.15870906 0.07173457 0.21820922 -0.10751455 -0.18670857 -0.22924794 -0.112513535 0.054604862 0.18509726 0.12783064 0.22065125 0.14269635 0.13430528 0.23947753 0.05943131 -0.040769026 -0.047827132 -0.103274755 -0.14493087 0.26258376 -0.0066689337 0.060643516 0.04112863 0.17626801 0.037465267 -0.024944237 0.104528315 0.030396076 -0.028547587 -0.3487221 0.012655223 -0.1592773 -0.25540975 -0.06969996 0.05641543 0.04032687 0.21774922 0.08149311 -0.13832596 0.14385587 0.19034626 0.2568426 -0.0044487976 0.15691115 -0.00072275597 0.06417621 0.1302813 -0.0336579 -0.1503956 -0.07156079 -0.082139276 0.20052621 -0.09816425 -0.22355282 -0.24514014 -0.0814112 -0.110387236 -0.16828378 0.18611357 -0.004114881 0.14949092 0.24337478 -0.112674706 -0.008422088 -0.2608235 -0.09958356 -0.2776914 -0.04594283 -0.040987857 -0.06478884 -0.015472566 0.0413326 -0.07513829 0.108153 0.1575187 0.12145246 -0.047560036 -0.13282873 -0.15010369 -0.0040942635 0.15325344 -0.058703363 -0.11558335 -0.08092137 0.09817995
8 -0.048385438 -0.034776766 0.22402355 -0.058211625 0.05365908 -0.28961128 -0.0054026707 0.11234861 0.16326757 0.10453652 0.19886762 -0.07655866 -0.07662262 -0.2440061 -0.093586884 0.21735053 -0.023246309 0.11324934 -0.1451171 0.20933273 0.25846308 0.16597778 0.2341044 -0.10417841 -0.10174274 0.13869978 -0.17832492 0.0354019 0.15217765 -0.083964795 -0.3179037 0.053206664 -0.15325475 0.099619016 -0.04342454 0.24746606 0.4669185 0.10036593 0.30187827 0.007646675 0.0043095313 0.10980091 -0.06223267 -0.112532586 0.13144536 0.20492047 -0.08073433 -0.2537594 -0.14006968 -0.12278831 0.0912757 0.14628933 0.10832638 0.1666056 0.12908138 0.21733983 0.24628177 0.12914945 -0.027960086 -0.08913823 -0.10009393 -0.14956497 0.21710204 0.0066986945 0.080840975 0.057899565 0.25653586 -0.044532165 -0.08703759 0.07657988 0.009140227 -0.05442 -0.30876595 -0.0047245948 -0.08547023 -0.20879579 -0.06020314 0.035692178 0.05669022 0.2281012 0.123231806 -0.10964534 0.1439669 0.24531658 0.28446308 0.06617149 0.2113894 -0.014033986 0.06814929 0.23890711 -0.10271584 -0.2215787 -0.07201491 -0.11169913 0.18559168 -0.05128025 -0.22646326 -0.21636531 -0.01112597 -0.11105274 -0.24950774 0.21913093 0.07207193 0.18353458 0.36611208 -0.09326473 0.037629616 -0.3704522 -0.0977591 -0.34385964 -0.063841574 -0.023633834 -0.0440964 -0.062936395 0.14066693 -0.12433101 0.11402704 0.1861244 0.118936926 0.03412575 -0.14404704 -0.13807032 -0.012547333 0.11032845 -0.022242764 -0.12465124 -0.04873371 0.05735608
1 -0.26121885 -0.15187567 0.34663406 -0.1558383 0.104972124 0.06418712 -0.1845214 0.011427726 0.1915282 0.16143733 0.22394618 -0.11445932 -0.21041468 -0.15669416 -0.08712548 0.0056750467 -0.023909366 0.14234951 -0.30061674 0.13966198 0.16621102 0.038721062 0.139935 -0.10760584 -0.27489838 0.09329675 -0.13854764 0.09272697 0.0350652 0.024182063 -0.36774766 0.01984389 -0.16348906 -0.06280951 0.14448054 0.18887046 0.23835681 -0.033573672 0.27324042 0.043446753 -0.08040382 0.0022737507 -0.05373028 -0.12019926 0.09812814 0.16608347 -0.018950423 -0.032937974 -0.23422699 0.0731392 0.137341 0.28284693 0.19199707 0.17560104 0.017567616 0.16011128 0.300481 0.05173917 0.02199622 0.22122554 -0.19390094 0.07161865 0.1224365 -0.05026398 0.18811303 0.09273599 0.06528923 0.03902557 -0.20808004 0.13406532 0.052469276 0.005093415 -0.21387437 -0.08239733 -0.010219507 -0.33007556 -0.12766378 0.24122751 -0.0065319426 0.40514594 0.03240936 -0.084434435 0.10369503 0.24109042 0.21146348 0.1585743 0.2757657 0.015739098 -0.04649817 0.087190665 -0.0719232 0.019778928 -0.027912537 0.01222753 0.13424599 -0.10711148 -0.38231778 -0.3597489 -0.20878915 -0.26595807 -0.31024557 -0.013435896 -0.11311154 0.23191996 0.3409738 -0.031277597 0.0061889687 -0.42184135 0.031436045 -0.17863455 -0.12704912 -0.12445577 0.019932106 0.12434692 0.036451325 -0.042828552 -0.024317827 0.2400959 0.14552353 0.088269874 0.0031766712 -0.05880969 -0.06590538 0.048574682 -0.09755552 -0.14186282 0.013796651 -0.06209909
5 0.33213586 -0.09635142 0.092817664 -0.20395638 0.312497 -0.08807896 -0.004015467 -0.053713083 0.026561376 0.07035879 0.31927463 -0.0845816 -0.167141 0.1973404 0.44539154 0.11393912 0.21619862 -0.123227075 0.0538361 0.14400372 -0.041997995 0.13523309 0.13310665 0.020593232 -0.15786998 0.3788361 0.050519142 0.09448997 0.117282316 0.008506615 -0.29188716 -0.0049443236 0.18561433 0.48451442 -0.14487566 -0.172676 0.0028168906 0.010931357 -0.17558327 0.094277695 -0.38114735 0.106285796 -0.041698787 -0.06755632 0.18165834 -0.41086045 -0.13340259 -0.014586647 -0.041772544 0.12123662 0.051393017 -0.21202613 0.23636161 0.18372244 -0.10326172 0.32733095 0.23474637 0.014959246 -0.1322037 0.04292148 -0.11095655 0.022321824 0.0124167055 -0.120105475 0.15921928 0.09108343 0.14950882 -0.16985822 -0.11860462 -0.056434676 0.15671642 0.05485509 -0.044681046 -0.18325675 0.048543602 0.038375 0.03318704 0.038441315 -0.31992215 0.004197884 -0.074422605 -0.21012446 -0.1623464 0.019710952 -0.15875037 -0.16995127 0.005467249 -0.110475354 -0.06865839 0.16853844 -0.109847724 -0.22522609 0.0018462837 -0.22834134 0.14993906 0.018270358 -0.10832155 -0.07494538 0.08587866 -0.08364238 0.022867575 -0.4860861 0.054365505 0.044846434 0.15006295 -0.10338356 0.025970044 -0.12869462 -0.0077512395 -0.045515355 -0.038486797 -0.028651064 0.273834 -0.08594019 -0.14571881 0.103365615 -0.14069715 0.07178963 0.17705673 0.04349134 -0.11789769 -0.22266838 -0.10289631 0.37156472 -0.094188474 -0.13127084 -0.264973 -0.028135093
3 0.0022590952 -0.064685486 0.057686515 0.014244579 -0.04323469 -0.25750014 0.049091686 -0.060509324 0.023140464 0.09904622 0.21340126 -0.015753545 -0.004285047 -0.15920095 0.047406413 0.18071426 0.11281264 0.17328799 -0.102819875 -0.018593999 -0.10469822 0.29823858 0.065403886 -0.07991206 -0.080961056 0.039795116 -0.07101278 -0.09908907 0.0037602664 -0.056483805 -0.20591596 0.1468226 0.021346558 0.206922 -0.07854904 0.11421461 0.3258299 0.21248104 0.17368692 -0.041096073 -0.03379924 0.013254465 -0.008992048 0.02101594 0.18785499 -0.018717272 -0.19324535 -0.16443461 0.041463114 0.09714839 -0.0406041 -0.05591448 0.18284912 0.12934217 0.124988765 0.2245321 0.09787976 -0.012370171 -0.13397789 0.08542777 -0.03263669 -0.050875325 0.05928789 -0.011088019 0.072021104 0.14746256 0.11109828 -0.06190917 0.010023159 -0.21389897 0.27640888 -0.007934406 -0.19039169 -0.22919698 -0.00329152 0.08013396 0.057370566 -0.07081961 -0.13646911 0.18439323 0.01658893 -0.10479513 0.06558259 0.31043372 -0.08363135 -0.0045349933 0.059822943 -0.09412048 0.1270781 0.13708204 -0.136558 -0.27160415 -0.054416753 -0.0883079 0.31744954 0.16922 -0.12088996 -0.018029425 0.11689794 -0.07422492 0.02785002 -0.1875553 0.034306545 0.04442751 0.046473786 -0.04819925 0.16748543 0.013429395 -0.1238047 -0.09592004 0.08180565 0.09782484 0.24938305 0.036503594 -0.046861075 -0.11070919 -0.065081485 -0.014169302 0.011971797 0.12943295 0.056662608 -0.122481026 0.04834693 0.05830031 0.1521367 0.022571506 -0.103519924 0.08684045
17 0.48495135 -0.47035584 0.47353587 -0.12757154 0.08109392 -0.14195134 0.0032597433 0.077335216 -0.007600609 -0.12972762 0.2735066 -0.37960202 0.12110167 0.25180122 0.04562292 -0.15207498 -0.28444633 0.17060241 -0.04440162 -0.03577207 0.36630073 0.050444476 -0.3214452 -0.0871751 -0.25276896 -0.11443994 -0.16849197 -0.05920161 0.2511991 0.24206372 -0.33861247 0.38582832 0.4712355 0.062041268 0.2712297 -0.1819286 0.1000197 0.3915441 -0.29018804 0.037079334 -0.24776955 0.10788548 -0.10067202 0.22416028 0.25847426 -0.2729002 -0.18074849 -0.35559848 0.13564433 0.37942952 -0.0635594 0.24854784 -0.08888477 -0.043088187 -0.12585196 0.16889061 0.297823 0.061790418 -0.23982921 -0.05194469 0.1295455 -0.29073355 0.010985714 -0.33365968 0.06402187 -0.03906599 -0.299158 -0.04199346 0.15345636 0.044898443 0.14986153 0.09851275 -0.32390213 -0.12091949 0.18263638 -0.14430936 -0.083113134 -0.058028385 0.035480134 0.20966923 -0.046735615 -0.29995576 0.2874558 0.07509114 0.20358242 0.11204646 0.044091236 -0.32015702 0.019347563 0.264058 -0.2696883 0.22019026 -0.13995753 0.18365942 0.11587705 0.3672178 -0.16361395 -0.25340062 -0.2575943 -0.19868928 -0.1249449 0.023034295 -0.3030706 -0.3300728 -0.32466388 0.16731022 -0.07716334 -0.09387721 -0.1098893 0.09801567 0.09669136 -0.0067309174 0.22385068 0.115140714 -0.22839262 -0.15283869 0.018321753 0.13767229 -0.064127676 0.3755001 0.10547833 -0.31643862 -0.066578425 0.13938667 0.09713785 0.41360843 -0.28505334 0.39912027
10 -0.048128054 -0.09866305 0.12873091 -0.07062303 0.103314795 -0.28736204 -0.007911157 0.11706818 0.13596117 0.05363473 0.15083304 -0.14059806 -0.116035424 -0.27344522 -0.059488095 0.14232087 0.03552923 0.17470841 -0.1284906 0.16668594 0.3553747 0.27331743 0.17632484 -0.057845015 -0.047230028 0.1446791 -0.19998562 -0.028374255 0.18915638 -0.028890781 -0.45028892 0.0476022 -0.13788387 0.107453994 -0.065303825 0.27862954 0.40291527 -0.020989567 0.3625658 0.02010174 0.014468804 0.10547353 -0.06581342 -0.08985358 0.020349592 0.2611497 -0.04136756 -0.20112588 -0.2488319 -0.10804279 0.124685764 0.16180742 0.18939611 0.18239412 0.07704623 0.22769174 0.25838208 0.09241767 -0.037472676 -0.012755055 -0.08599226 -0.14888074 0.27185044 0.012133316 0.116421446 0.025896378 0.2921504 0.06047677 -0.06817695 0.10837681 -0.04111924 -0.11624294 -0.34803075 -0.024209302 -0.20346896 -0.22116628 -0.13336574 0.098074384 0.003759667 0.2213263 0.040117763 -0.086708926 0.116857514 0.23017804 0.25594148 0.13184252 0.17385165 -0.017056042 0.07383456 0.1553955 -0.02398066 -0.20328327 -0.119587295 -0.07643166 0.21347453 -0.11232688 -0.17849737 -0.23329046 -0.022299554 -0.11555791 -0.22097676 0.1989064 0.014794007 0.17342056 0.2722136 -0.0950415 0.044125803 -0.3333912 -0.05744052 -0.34542257 -0.025936505 -0.060246997 -0.089321725 -0.0061503104 0.052747536 -0.08765469 0.05142783 0.09875771 0.10957746 0.044321854 -0.16719197 -0.11854024 -0.044105176 0.11471491 -0.00469804 -0.07712241 -0.02620205 0.087209076
11 0.115356825 0.04026968 0.12986702 0.15328026 0.12364668 -0.06097458 0.08309985 0.07604736 -0.12938595 0.07708145 0.107951134 -0.22362502 0.0022118615 -0.080584936 0.28589928 -0.06024987 -0.0061887577 0.0499544 -0.13272697 -0.22308931 -0.23582451 0.038666938 0.011409475 -0.10916503 -0.13311009 -0.003988538 0.16135307 0.19135483 -0.021624485 0.053824313 -0.23845914 0.16619806 -0.012038845 0.16038735 -0.2312052 -0.07633799 0.17983629 0.23060441 0.11007509 -0.14715116 0.0013797426 -0.060329277 0.07509841 0.020730326 0.037941147 -0.121933855 -0.16523853 -0.12387491 0.09644249 0.08107158 0.03278698 -0.255567 0.29860452 0.049986016 0.14192566 0.10334732 0.08814692 -0.0127579495 -0.23269835 0.09103438 0.011431624 0.09132102 -0.015024339 -0.16570596 0.111032 0.017035263 -0.1626361 -0.13505013 -0.10928874 -0.22878161 0.2434277 0.145378 -0.19679303 -0.23664942 0.04306783 -0.13977402 0.037324756 -0.11640042 -0.082058966 0.27526814 0.073086075 -0.17462713 0.043679286 0.21141611 0.02891749 -0.15058734 0.39743686 -0.13619947 0.14513274 0.09518403 -0.08403056 -0.23766495 0.08831177 0.003718063 0.13071157 0.14592285 -0.29553524 -0.20726274 -0.16731916 -0.113269165 -0.006701012 -0.25675008 0.0949962 0.109500706 0.091759704 -0.13130166 -0.042424407 -0.06434692 0.13228899 0.01710128 0.091784045 -0.07468166 0.2747132 0.033051565 -0.11171583 0.09105679 -0.14662789 0.25178617 0.10193288 -0.01134964 0.050788734 0.0061712633 0.11181642 0.20344083 0.08703426 0.015930146 -0.020204837 0.040510014
9 -0.037882607 -0.03154879 0.11450095 -0.014269363 0.108089246 -0.22577816 0.022092605 0.10077418 0.13651982 0.045987334 0.22706848 -0.11377828 -0.0019265423 -0.26280704 -0.07623798 0.2012006 -0.047112174 0.14300284 -0.12866077 0.18160355 0.32223004 0.20475903 0.18520959 -0.07553824 -0.063020125 0.13917165 -0.18037458 0.018165823 0.17396565 -0.041763596 -0.39513916 0.13499151 -0.10905505 0.086926535 0.007889032 0.2906497 0.48214674 0.04185126 0.3911873 -0.00766939 0.08123193 0.106625475 -0.0038371752 -0.1043442 0.06762041 0.19871299 -0.11543699 -0.2376868 -0.25178295 -0.088429786 0.14517683 0.19112602 0.11717211 0.23629728 0.07595156 0.06502128 0.21558395 0.12734875 -0.11090689 0.0023868447 -0.20601569 -0.17642492 0.2554819 -0.026379751 0.036154337 0.03183699 0.16556184 0.02872098 -0.11137387 0.16579919 -0.00241531 -0.11000747 -0.3678558 0.031668097 -0.12326709 -0.23556812 -0.09965162 -0.042608194 0.08017552 0.26748353 0.14092362 -0.12624905 0.14628509 0.20536391 0.3208565 0.05947708 0.12334144 -0.031170106 0.043798074 0.24711123 -0.081821464 -0.15542036 -0.04064853 -0.061687823 0.16756636 -0.055079285 -0.1879377 -0.19796808 -0.057522535 -0.12642027 -0.18005998 0.18654461 -0.051917184 0.13844703 0.26981726 -0.097616695 0.01897732 -0.25694132 -0.05899343 -0.3028983 -0.034422565 -0.06298726 -0.031147268 0.0029542285 0.051079057 -0.13224432 0.046904527 0.10470536 0.0795868 -0.00037398498 -0.10689825 -0.15811433 -0.0035712933 0.11462945 0.009976835 -0.1035069 -0.040928844 0.12385548
16 -0.031876177 -0.059941042 0.25306174 -0.0772224 0.09318407 -0.2796333 -0.018613705 0.059415113 0.15567307 0.090626225 0.24141671 -0.18479346 -0.10437058 -0.26908335 -0.1081628 0.18056417 -0.08862387 0.0702514 -0.107119344 0.10878382 0.32532 0.26625353 0.23587146 -0.029313428 -0.12275752 0.13765858 -0.14338809 0.03108635 0.20605817 -0.11849276 -0.4303545 0.031811066 -0.09936957 0.08997133 -0.0050799595 0.27301392 0.43411696 0.058580257 0.3497252 0.027349206 0.015921153 0.08500657 -0.076103404 -0.13576739 0.08312509 0.22432598 -0.088873014 -0.21298204 -0.21268824 -0.1461657 0.08130634 0.15091453 0.1132904 0.18225369 0.116953544 0.20160311 0.20068309 0.08680886 -0.053014606 -0.05936292 -0.0886426 -0.13896129 0.3040341 -0.030952798 0.100972705 -0.0018355891 0.24206609 0.0037357905 -0.027895559 0.10707314 0.046032052 -0.029775066 -0.3573268 -0.0010008066 -0.18757868 -0.20708026 -0.07044254 0.03498791 0.05948608 0.28033546 0.082863845 -0.15864101 0.13061522 0.22089058 0.28911218 -0.000755555 0.12270231 -0.02810663 0.04120212 0.1549009 -0.07130149 -0.14561315 -0.039742786 -0.09266304 0.2486 -0.07437947 -0.1981697 -0.1406635 -0.026692932 -0.08030215 -0.1303497 0.1754683 0.012484106 0.1156009 0.23109514 -0.12575158 0.081555255 -0.23202744 -0.103020355 -0.27654335 -0.048990708 -0.049178433 -0.060891602 -0.022797776 0.09539189 -0.10455908 0.12158712 0.16232483 0.08357077 -0.0062012346 -0.1146426 -0.12499686 -0.02628121 0.08714937 -0.029192202 -0.12252659 -0.018384099 -0.013434418
32 0.25816917 -0.055321813 0.35453227 -0.12662259 0.020390417 -0.10201376 -0.13700801 0.14539815 0.0012496081 -0.034712747 -0.009289223 -0.0968525 -0.11582081 -0.039397 0.30421984 -0.16168736 -0.10566538 0.07632995 0.01592119 -0.18731554 0.17192851 -0.050815918 0.25864145 -0.09170054 -0.16504729 0.07603103 0.021454522 0.26982248 0.12608348 -0.023543773 -0.3162489 -0.09507548 -0.052769873 0.0728704 -0.16059408 -0.08898336 0.15325734 0.10705987 0.30014133 -0.24957041 0.021998798 0.23463416 -0.17435801 -0.21119794 0.16073856 0.047179706 0.048170112 -0.3047859 0.08058826 -0.060503326 0.09304377 -0.23095284 0.24353786 0.047230314 0.28479823 0.16690706 0.036174767 0.06854368 -0.095881775 -0.15635705 0.19496194 0.11536913 0.09882715 0.1431358 0.113318294 -0.053354822 -0.04099063 -0.025848124 0.2371726 -0.35768884 0.058380775 0.17759022 -0.22562517 -0.06171848 -0.13097407 -0.13151148 0.06040365 0.16284613 -0.122268274 0.30915466 0.12741674 -0.1114323 0.21780623 0.28027728 0.1519117 -0.18324788 0.5038114 -0.27266034 0.23085693 -0.08258537 -0.102979645 -0.2972258 -0.03038775 -0.100433275 0.2521863 -0.096271954 -0.3810395 -0.22644092 -0.07638941 -0.15325312 -0.09249152 0.059216417 0.20378448 0.18031155 -0.043017324 -0.07692234 -0.15200564 -0.1035193 0.077916354 -0.09131638 -0.014591257 -0.091433376 -0.075728975 -0.016169995 -0.16614234 0.094519645 0.2072287 0.27180603 0.15238313 0.045278635 -0.18340318 0.09288625 0.00326791 0.08240703 -0.0909094 -0.1619097 -0.13210937 -0.13572134
20 0.077404596 -0.100647144 0.16165994 0.18569976 0.050413646 -0.10987958 -0.0094097415 -0.07205544 0.0031527025 0.05444934 0.095021725 -0.21520764 0.105757825 -0.1166985 0.29328665 -0.061222285 -0.0076129115 0.18777435 -0.24740711 -0.10378515 -0.0824227 0.2372948 -0.05240548 0.072522454 -0.07016846 0.015669597 0.12562789 0.15234156 -0.14360791 0.025963815 -0.30345345 0.083700255 -0.10004766 0.026189383 -0.18134253 0.0019070682 0.36468935 0.17680764 0.2964147 0.017957428 -0.08547637 -0.12285272 0.15590231 0.052938752 -0.020228466 0.057710014 -0.0532786 0.003536842 -0.008151313 0.31337917 -0.11775562 0.08140126 0.37999496 0.09509181 -0.14794056 0.11442324 0.054260984 -0.0032234464 -0.1288339 0.33665603 -0.012674616 0.04302026 -0.07942435 -0.05439357 0.124821626 0.12551084 -0.21302745 -0.115980074 -0.35220927 -0.13897516 0.18193087 -0.12937592 -0.20325863 -0.27012935 0.16530724 -0.16936956 -0.13561001 0.03853608 -0.042637814 0.2913982 0.065512784 -0.07203451 -0.00017812899 0.2639549 -0.256843 0.14557883 0.32694468 -0.044106945 0.06596688 0.18033123 -0.22900744 -0.20866166 0.07611081 0.03873664 -0.055839837 0.2532734 -0.31182554 -0.34159976 -0.26404876 -0.21326011 -0.19339857 -0.17420353 0.1547292 0.28711784 0.07570651 -0.02622159 0.155548 -0.20901325 0.05775834 -0.022606289 0.010894591 0.045557834 0.42139918 0.070531 -0.06512188 -0.13339649 -0.35512346 0.12025501 0.0133454865 -0.0969378 -0.045954004 -0.17605165 -0.023604281 0.3062531 0.18391135 -0.010631227 -0.072343096 0.13485728
19 0.0376873 -0.20088206 0.14245422 0.17421393 0.08206796 -0.11639194 -0.113136694 -0.063376114 0.05541854 0.056620732 0.117940634 -0.2202846 0.13276498 -0.1375662 0.31368372 0.00048193062 -0.054515813 0.21128757 -0.3188158 -0.08223115 -0.13011199 0.20486714 -0.06899928 0.031048281 -0.113516405 -0.07949076 0.13823086 0.08344524 -0.16178502 0.010836619 -0.34037766 0.1091599 0.008605534 0.15690137 -0.13911492 0.14173493 0.39329225 0.22012162 0.31569883 -0.043724194 -0.0567931 -0.13353783 0.14884219 0.05052389 -0.011481063 0.009274985 0.036815856 -0.08168381 0.024167007 0.25317365 -0.04557343 0.043460753 0.4009091 0.16663055 -0.02785366 0.08951312 0.077959076 0.028840367 -0.14481708 0.35340083 -0.030999132 0.121145606 0.020320345 -0.15516126 0.09910283 0.24104013 -0.18610562 -0.12413001 -0.34892327 -0.14589688 0.18865927 -0.08359438 -0.23705034 -0.22331448 0.18252304 -0.20714317 -0.11869831 -0.04737923 -0.07266243 0.3795949 0.09300384 -0.12744306 0.0861402 0.31135494 -0.1784554 0.12766564 0.35884976 -0.08049461 0.050085675 0.15483692 -0.20392308 -0.15164067 0.12578501 0.037030127 -0.045315333 0.2666926 -0.33395943 -0.14190152 -0.26044467 -0.15633614 -0.15234625 -0.15324062 0.1408066 0.21165843 0.034847286 -0.010548635 0.090964794 -0.07172875 0.0376281 -0.03402626 -0.03638951 0.06136865 0.37783086 0.07347426 -0.052969642 -0.1868405 -0.301663 0.07424422 -0.0921674 -0.043413736 -0.014713788 -0.09645733 -0.016004711 0.14990595 0.23568563 0.012643981 0.082068585 0.120528325
29 0.3241246 -0.0510028 0.046757095 -0.27787092 0.41402102 -0.17990051 0.034968745 0.081003524 0.08737496 0.1067807 0.26289257 -0.11290463 0.023115015 0.27186006 0.42923808 0.17865734 0.3510345 -0.10599063 0.16963758 0.31520757 0.080255546 0.20716737 0.13689204 0.07540258 -0.10060561 0.53424627 0.09925473 0.10843535 0.2988019 0.07856 -0.39404255 0.0732075 0.19912909 0.5138267 -0.19098568 -0.118419915 -0.11935249 -0.019430207 -0.28411955 0.107169814 -0.3219956 0.041123763 -0.0069769197 -0.041384805 0.20980291 -0.32695907 -0.16666879 -0.052137587 -0.100218855 0.16909696 -0.03333076 -0.014080646 0.38346127 0.15346523 -0.2393071 0.24275632 0.18909031 0.38285393 -0.10457003 -0.10610821 -0.2508412 0.02950311 0.15158442 -0.12190187 0.44149163 0.0028282825 0.1839912 -0.18154372 -0.12755097 -0.13459305 0.23459075 -0.15877981 -0.14446269 -0.3160322 0.044776876 -0.057673685 -0.043062348 -0.15977666 -0.45441198 0.10206202 -0.046612516 -0.37689176 -0.2879103 0.25477955 0.036192432 -0.28245515 0.004413255 -0.30838847 0.008014248 0.20839138 -0.2054526 -0.44838503 0.017856749 -0.11104904 0.10389511 0.24143465 -0.07219685 -0.20991436 0.28221887 -0.31614196 0.053096373 -0.46160558 -0.106041834 0.03243759 0.037627134 -0.10441542 -0.023163281 -0.004471033 -0.056788124 0.10424268 -0.0626508 0.03696915 0.14915861 -0.10376536 -0.27171466 0.055404685 -0.19904663 -0.15261096 0.2982965 -0.035197265 -0.16167451 -0.33354345 -0.06315017 0.27250776 -0.07356652 -0.1045531 -0.3175269 0.11652078
45 0.44103745 -0.3630865 0.32900822 -0.03774016 0.062696986 -0.011278888 0.07870542 -0.24912693 -0.1073221 -0.17923251 0.26337814 -0.24761717 0.011955107 0.12215208 0.073147655 -0.04624918 -0.24285787 0.18505934 0.04751225 -0.10757757 0.31283668 0.28581712 -0.22239067 -0.05229728 -0.33221877 0.011551358 -0.13162597 0.08404678 0.24968913 0.13300748 -0.3447781 0.29503006 0.42283562 0.06817627 0.24911232 -0.17081958 0.10713939 0.49569342 -0.23971678 0.115831226 -0.112233385 0.12595442 -0.14772242 0.15824544 0.40609956 -0.1840382 -0.13493356 -0.47638148 0.03280685 0.2803047 -0.041690838 0.18854147 0.07331424 -0.048885223 -0.07121248 0.18325227 0.26816878 -0.018713566 -0.22399142 -0.083265334 0.20575245 -0.16675119 0.049590487 -0.18134789 -0.053236328 -0.12994285 -0.19868174 -0.029487722 0.17698725 0.015581728 0.19911827 0.062224984 -0.29384592 -0.074371845 0.056219336 0.10643146 -0.05945148 0.0589205 -0.004994074 0.31227002 0.023059102 -0.2971906 0.23471439 0.10496266 0.24490078 0.0077469293 0.08757729 -0.3308123 0.050626554 0.17898943 -0.22955984 0.039487932 -0.01549764 0.12831262 0.20376153 0.33636802 -0.08032811 -0.12662634 -0.21941139 -0.23201145 -0.014921916 -0.01020864 -0.19865787 -0.1965641 -0.27717522 0.06473676 0.08059874 -0.11039067 -0.18100736 0.108346656 0.07664212 -0.042121306 0.20256251 0.009925829 -0.11838897 -0.21352465 0.1215126 0.08743313 -0.14410171 0.31630674 0.07289694 -0.12540922 -0.15414542 -0.018334148 0.12586372 0.271536 -0.1766571 0.2279108
22 0.22398165 0.08713555 0.05732519 -0.23020884 0.3677153 -0.17093602 0.05499536 0.18172957 0.0465771 0.09569466 0.28021437 -0.08345276 0.09147679 0.23944744 0.33559576 0.16185535 0.30052817 -0.08902517 0.1785856 0.27988356 0.15814653 0.14243047 0.27729055 0.010058688 -0.05337916 0.49463323 0.10063388 0.13657433 0.2957281 -0.04670901 -0.33978966 0.034035668 0.052029908 0.34925443 -0.21776521 -0.07846333 -0.12888949 -0.14080523 -0.31342736 0.04731804 -0.26996785 0.053959783 0.018140862 -0.13956901 0.069326654 -0.20403405 -0.20006101 -0.007265286 -0.074516505 0.10853133 -0.05072824 -0.04391115 0.23047197 0.11201217 -0.16296792 0.09274914 0.097802095 0.35729632 -0.13149403 -0.18184471 -0.2419399 -0.034095977 0.10426723 -0.14513807 0.43657073 -0.040461645 0.16055629 -0.123963736 -0.07604382 -0.10776625 0.16546813 -0.14359078 -0.17646113 -0.3422576 0.07704914 -0.1209385 -0.007811405 -0.18568927 -0.38723084 0.060201645 0.044931475 -0.25027096 -0.23624988 0.23749705 0.11769006 -0.3427454 -0.011029452 -0.30415797 0.00067373016 0.21755856 -0.16883504 -0.400913 0.041549154 -0.054865506 0.1556267 0.19658275 -0.09358454 -0.3065354 0.26757112 -0.32399446 0.010232207 -0.3563015 -0.15224166 0.010845428 0.061266314 -0.12667753 -0.0573002 0.048782397 0.03806084 0.007669611 -0.09559507 -0.04752918 0.12717247 -0.044197585 -0.31523693 0.117813095 -0.094234906 -0.00442533 0.37267038 -0.16295245 -0.16776882 -0.28327078 -0.0027124814 0.34208727 -0.109176576 -0.09610708 -0.3855584 0.15394965
30 0.35376716 -0.094681434 0.08885206 -0.31032652 0.42046672 -0.22025308 0.06790377 0.15493669 0.05278096 0.13438472 0.28043947 -0.08037304 0.0033177715 0.26922676 0.44201607 0.16660364 0.33812332 -0.10840332 0.10528968 0.35119852 0.124931484 0.1639891 0.15016559 0.039634682 -0.15749705 0.5288667 0.034970593 0.108035475 0.29382372 0.06536503 -0.44728208 0.06730431 0.15032785 0.541314 -0.20468457 -0.06119678 -0.08201652 -0.0847402 -0.23101176 0.10187787 -0.33439055 0.090543464 -0.0669526 -0.01394998 0.20876324 -0.35020256 -0.12695278 -0.029447462 -0.1262032 0.14079706 -0.006814342 -0.08318518 0.31834158 0.14796507 -0.19308512 0.18565904 0.20133053 0.348303 -0.1130524 -0.06708111 -0.27709305 -0.029440954 0.13045019 -0.06322284 0.4082348 0.020953078 0.17352946 -0.14525068 -0.17527777 -0.16358417 0.20973094 -0.16996184 -0.09739301 -0.36013728 0.09384798 -0.07334763 -0.029714173 -0.22289956 -0.42843664 0.02661733 -0.09098265 -0.33691835 -0.25827935 0.24757472 -0.037665125 -0.2669074 -0.0020178715 -0.29975143 0.055558145 0.2586635 -0.1733376 -0.40938848 0.03277994 -0.108948 0.09456506 0.23172227 -0.11464749 -0.28178892 0.33808488 -0.28941163 0.015829671 -0.46002397 -0.12626775 -0.036123678 0.03484654 -0.05084389 -0.081019685 0.01432993 0.0048115253 0.12607549 -0.11919538 0.03498415 0.13448259 -0.09464602 -0.30997473 0.15130787 -0.18651195 -0.11791039 0.37903583 0.021629462 -0.16295806 -0.33333135 -0.094180964 0.33943245 -0.109759256 -0.14608419 -0.33867052 0.13723662
28 0.31051773 -0.099984005 0.124850735 -0.29098096 0.38603556 -0.21829101 0.026909953 0.18009338 -0.017997216 0.14705679 0.2920926 -0.12645501 -0.005418965 0.34291446 0.42464724 0.17550416 0.3184014 -0.08422381 0.101118945 0.38988793 0.12699464 0.15612145 0.22364597 0.032798283 -0.133519 0.5423826 0.06322351 0.17658426 0.27686188 -0.0035282676 -0.37429518 0.078128584 0.11837165 0.44126529 -0.18800807 -0.0918967 -0.08785974 -0.06897934 -0.27666348 0.08363473 -0.31705177 0.070622504 -0.05937217 -0.050593052 0.1917394 -0.29522318 -0.16562165 -0.003275575 -0.08906546 0.16052368 0.005616363 -0.021701228 0.316723 0.11161608 -0.17876041 0.18372203 0.23566866 0.3524537 -0.057071943 -0.070569225 -0.25241747 -0.037470486 0.13447554 -0.095911905 0.42730418 0.03644404 0.16081157 -0.16144359 -0.13053644 -0.16329196 0.24569413 -0.18207839 -0.08658714 -0.3841472 0.1534501 -0.074742205 0.010112418 -0.22788727 -0.40832067 0.043571692 -0.039261285 -0.28194934 -0.27460498 0.22201683 -0.0009846246 -0.30987036 -0.0008118467 -0.29412034 0.04116219 0.28822973 -0.1735911 -0.38477254 0.09217463 -0.092111655 0.11110155 0.26387608 -0.15128241 -0.29252356 0.33648753 -0.29635578 -0.0029199584 -0.37399846 -0.17612796 -0.04693619 0.009749134 -0.011644792 -0.123359255 0.067270756 0.00845605 0.16153765 -0.11599562 0.011739911 0.09702508 -0.06311245 -0.32941186 0.15775582 -0.12655929 -0.09082935 0.3701587 -0.020979537 -0.10543161 -0.29452902 -0.060533535 0.3006289 -0.13553888 -0.13858746 -0.3766321 0.1424174
33 0.34010825 -0.2723343 0.4543704 -0.05822106 -0.03094651 0.08365927 -0.08938067 -0.0013096747 -0.07565032 -0.10691646 -0.048246592 -0.07086373 -0.18008734 -0.06749134 0.32563996 -0.13954948 0.015426213 0.08932795 -0.15592109 0.022658784 0.3672332 0.066599935 0.35591492 0.03331364 -0.2835329 0.115612246 -0.13928196 0.08460679 0.25844535 -0.33787313 -0.19176292 0.13900991 -0.07195117 -0.018124055 -0.16249079 -0.16470239 0.15156852 0.035740536 0.2450755 -0.16194701 0.20866959 0.28570724 -0.05921647 -0.22978182 0.19978824 -0.01240855 0.19491872 -0.17543817 -0.0069455793 0.09574167 0.15479419 -0.21725212 0.35380822 0.100951396 0.110091336 0.08319098 0.08610784 0.09308991 -0.087253906 -0.02190163 0.17611298 -0.020595733 0.048191737 0.3915749 0.18983778 -0.08797316 0.02803272 -0.035252206 0.24283807 -0.35749623 -0.014534478 0.21834396 -0.13250433 0.044468578 -0.11673339 0.028653724 0.039711446 -0.010310619 -0.051932134 0.44313416 0.16728415 -0.16789618 0.12447982 0.29525265 0.066952854 -0.06692051 0.43014386 -0.21140148 0.33520302 0.13255505 -0.09402647 -0.3418378 0.05580377 -0.12976392 0.053752307 -0.033330347 -0.31370035 -0.054560103 -0.15880734 0.0180108 0.0048932442 0.081282996 0.12386771 0.12456043 -0.22908294 -0.05558523 -0.060747672 0.13007763 0.11503661 -0.043288436 -0.10238621 -0.2897706 0.09674224 0.113285124 -0.3077238 -0.04917594 0.24472958 0.32452604 0.2403767 0.051492225 -0.23753315 -0.16936809 0.004045087 -0.12049736 -0.091188 0.015076066 -0.26857948 -0.14689195
27 0.3683628 -0.07875515 0.06580731 -0.30264953 0.40780208 -0.19737546 -0.021163434 0.15147209 0.048544206 0.08145199 0.24591655 -0.04523522 -0.0019044082 0.30599818 0.48465738 0.17814255 0.2763269 -0.13855071 0.16153434 0.33297116 0.09696445 0.114760146 0.20090511 0.069725566 -0.10598839 0.53204924 0.08783775 0.2287907 0.24693824 0.10409177 -0.40406215 -0.022427363 0.13704452 0.45686892 -0.21534853 -0.16650982 -0.07622602 -0.049948916 -0.16592264 0.05086761 -0.3177216 0.030412648 0.008845875 -0.060327046 0.20195036 -0.32774895 -0.06375418 -0.06314444 -0.10286566 0.16827257 0.015579775 -0.09496641 0.3588457 0.16311258 -0.19265057 0.18129778 0.19467434 0.35199425 -0.083533466 -0.036501072 -0.26911294 0.060538173 0.15614735 -0.0542548 0.37145388 0.032767735 0.15749617 -0.114833884 -0.14886215 -0.16640332 0.27204317 -0.16645212 -0.10525478 -0.37025496 0.06322653 -0.11295655 -0.039759416 -0.14251296 -0.42623973 0.09088732 -0.013297424 -0.35060447 -0.2728063 0.26396373 -0.02100121 -0.26488882 0.04301761 -0.30981493 0.034879964 0.18321466 -0.22612375 -0.4504465 0.0776816 -0.14479686 0.084591284 0.21185024 -0.09012317 -0.31285396 0.36059874 -0.373993 -0.018810222 -0.41026655 -0.117704704 0.07582633 -0.029960116 -0.051368736 -0.029871808 0.017528761 -0.036301877 0.117481515 -0.123514056 0.085748486 0.037651047 -0.0641346 -0.33099502 0.07427621 -0.14958666 -0.09234992 0.41162333 -0.04195491 -0.23030946 -0.29941252 -0.10594837 0.33725783 -0.112002246 -0.20420057 -0.3743763 0.07133946
13 0.05418113 -0.07451329 0.24123813 0.012715202 0.051581115 -0.068444036 -0.10527524 -0.025714392 -0.030264666 0.043811098 0.24706765 -0.29769123 -0.14017457 -0.02005061 0.1968738 -0.0037585911 -0.085307986 0.07438777 -0.26841924 -0.113020636 -0.042679213 0.14717579 0.12618898 0.08120101 -0.20507827 0.08380826 0.08197652 0.2472055 -0.06066147 -0.21416244 -0.22420616 0.06853965 -0.07695601 0.08672608 -0.12293351 0.058879416 0.53469837 0.21871726 0.34258446 0.0025038226 0.011269308 -0.06550251 0.20615399 -0.079474665 -0.091515966 -0.08442544 -0.0014500199 -0.15014654 -0.012271071 -0.046520382 0.0755194 -0.040696397 0.26468688 0.1602069 0.18335903 0.041391462 0.14744034 -0.12101813 -0.08804487 0.19389513 0.14505169 0.067892164 0.060509577 -0.062492937 0.07825392 0.12563205 -0.21193558 -0.12829962 -0.28834802 -0.2530212 0.33896333 -0.016533725 -0.27827904 -0.15126732 0.20214148 -0.22806738 0.0447981 -0.07201272 -0.050228957 0.3264532 0.23752394 -0.1825475 0.08237994 -0.03921083 -0.036341622 -0.038113233 0.17706318 -0.044546444 -0.016943377 0.22753592 -0.21369267 0.0837201 0.147348 -0.029579673 0.13701893 0.12602669 -0.4150882 -0.2709513 -0.25585476 -0.14205916 0.046058945 -0.059087932 -0.07683229 0.10299413 0.034398783 -0.029409232 -0.09260661 -0.015871905 0.097546116 0.058688078 0.007702045 0.051283993 0.2764333 0.14030194 0.016115682 -0.09482581 -0.13924153 0.1885665 0.035810508 -0.18310435 0.08043632 0.021948604 -0.06254779 0.16835178 0.035578717 -0.1416949 0.030960996 0.010501772
26 0.35414776 -0.06025129 0.013029092 -0.33977947 0.39859918 -0.15110898 0.022498863 0.18120752 0.03408935 0.09079313 0.26166624 -0.10365826 0.0001225741 0.3150097 0.49860448 0.15794738 0.31925458 -0.058611628 0.14425714 0.36103886 0.18164879 0.14174038 0.15588434 0.10086641 -0.080279045 0.5280689 0.060364325 0.1748715 0.27599505 0.07615074 -0.41818288 0.014966645 0.16001107 0.40023544 -0.15681556 -0.1053397 -0.09984471 -0.113394596 -0.21376702 0.13671951 -0.33844817 0.08138278 -0.04677663 -0.041927047 0.17184965 -0.28486678 -0.09294972 0.020679759 -0.16909209 0.17244402 -0.029231785 -0.0009994147 0.37183887 0.15979332 -0.13946822 0.19582903 0.2241984 0.34286463 -0.094039686 -0.034761954 -0.33892763 -0.004796668 0.102023505 -0.030017657 0.43378946 0.04947534 0.20124902 -0.10930964 -0.22393166 -0.14476383 0.22990564 -0.22171053 -0.119247794 -0.32400844 0.11316448 -0.066642895 -0.019259589 -0.20645973 -0.39910367 0.013962182 -0.016196504 -0.31916255 -0.32771006 0.20311104 -0.03696582 -0.22916044 -0.022151152 -0.3042032 0.06726997 0.21923971 -0.18957134 -0.4077866 0.12265352 -0.09086668 0.10337191 0.27275538 -0.15217797 -0.3377583 0.3253649 -0.35979295 -0.058790192 -0.4110096 -0.14840496 0.03722539 0.0021968137 -0.05870334 -0.06800839 -0.04883313 -0.039579097 0.08152787 -0.10904332 0.009227734 0.08104349 -0.0020400768 -0.33309102 0.13971238 -0.16100506 -0.12943807 0.35425398 0.0022004172 -0.14069155 -0.34030297 -0.10218376 0.37709796 -0.14669898 -0.14959492 -0.3531719 0.1366699
31 0.3012111 -0.072882496 0.14356509 -0.2856276 0.38323355 -0.1870303 0.027072882 0.17423286 0.06483853 0.11813708 0.25146016 -0.122900955 -0.039747138 0.25258738 0.4027734 0.11239038 0.35037512 -0.08633344 0.10028538 0.28009787 0.033273526 0.18856582 0.20139483 0.03204476 -0.11314043 0.469075 0.12238233 0.0907912 0.26329538 0.00034615703 -0.3575255 0.09075104 0.12757473 0.52707297 -0.22237663 -0.07549165 -0.077566475 -0.090481326 -0.27210137 0.083934285 -0.33165666 0.045136012 -0.049793933 -0.031969644 0.15393287 -0.33314136 -0.12969849 0.013940387 -0.04809771 0.12887707 -0.039210305 -0.066011906 0.31544608 0.127425 -0.16348301 0.24548645 0.2102488 0.34976578 -0.07606197 -0.11234582 -0.20216414 -0.039114613 0.15003164 -0.11226309 0.48974088 0.033168424 0.18295187 -0.17701802 -0.14779946 -0.20647018 0.241375 -0.15111862 -0.11331909 -0.34998313 0.09993871 -0.10278304 0.012497865 -0.25750175 -0.45738807 0.03555379 -0.041525934 -0.3303829 -0.28953567 0.23246507 -0.05081034 -0.31096312 0.0314816 -0.2902296 0.06678824 0.27780443 -0.15794316 -0.39745674 0.05667912 -0.12171672 0.13201968 0.24061714 -0.14841437 -0.24483769 0.31525707 -0.26556215 0.07961392 -0.4551128 -0.14579852 -0.027445424 0.010451906 -0.060948897 -0.13514745 0.06730387 0.004032081 0.14958905 -0.08564648 0.013147582 0.16051948 -0.030399263 -0.3252463 0.16194591 -0.17534462 -0.09673413 0.37245125 -0.043491032 -0.12830026 -0.31620994 -0.00721611 0.3249165 -0.11123518 -0.124463916 -0.32917625 0.13360368
44 0.4321331 -0.3807655 0.28853408 -0.02570244 0.09022342 -0.03125397 -0.024058064 -0.13408118 -0.12461337 -0.15310082 0.29054815 -0.2350217 0.095881954 0.262815 0.043347985 0.018801639 -0.31721932 0.13542382 0.017389162 -0.0790232 0.32405505 0.14298442 -0.2115953 -0.09558437 -0.30180266 -0.033572532 -0.15666874 0.039974768 0.29299396 0.099199496 -0.29733187 0.32926604 0.55659914 0.12950335 0.26706263 -0.17634307 0.05543118 0.40889004 -0.33471274 0.052093025 -0.16280787 0.124414474 -0.09296079 0.024240889 0.28623116 -0.2653924 -0.21735168 -0.4802683 0.14438756 0.26080477 -0.030939132 0.15714847 0.052614063 0.012662396 -0.1029021 0.14675163 0.19472755 0.06701771 -0.27882987 -0.02018914 0.11380534 -0.17056432 0.054288168 -0.14189942 -0.061461218 0.03436708 -0.20069936 -0.0131211085 0.19950806 0.01182969 0.17062998 0.093086265 -0.33425605 -0.14659566 0.1605586 0.01557512 -0.08593708 -0.030185428 -0.0012983774 0.32449797 0.032884676 -0.38158134 0.33612743 0.17715886 0.2992495 -0.043872014 0.04592313 -0.31377885 -0.049088027 0.21223378 -0.2662635 0.0776341 0.04624684 0.1622227 0.24619234 0.2989568 -0.11510316 -0.09210451 -0.18126075 -0.22244596 -0.036663905 0.038127385 -0.2703922 -0.24367164 -0.29521456 0.13724042 0.052832343 0.045990832 -0.06750449 0.10103767 0.04200722 0.005320904 0.19740084 -0.03787794 -0.08862318 -0.24286626 0.12662391 0.08423714 -0.10362849 0.23894003 0.06639417 -0.22738124 -0.0899726 -0.03641469 0.13016106 0.33989853 -0.11914326 0.18385823
21 0.032046854 -0.16911054 0.20086136 0.07197553 0.04122056 -0.11352286 -0.05920149 -0.059568387 0.0695467 0.059128802 0.17633836 -0.22929363 0.03264706 -0.17273048 0.26347524 -0.027965793 -0.05891122 0.19796892 -0.29333773 -0.066655055 -0.035009857 0.23913173 0.019962817 0.073308036 -0.14193028 -0.038767133 0.11213713 0.107021734 -0.113906726 -0.028332904 -0.38908342 0.050207403 -0.084420316 0.1559103 -0.10425756 0.11001902 0.49533302 0.21073341 0.3864028 0.042077184 -0.07392663 -0.10194493 0.1809638 0.065320574 -0.016693056 -0.020607585 0.0315962 -0.018636765 -0.017632851 0.2188804 -0.04358477 0.00853455 0.3430894 0.18881966 -0.04603071 0.18425089 0.09653084 -0.07408508 -0.12873606 0.36216176 -0.08161373 0.0962586 0.03837499 -0.12378332 0.11988658 0.18318217 -0.14553633 -0.09501835 -0.3470575 -0.15094858 0.24014369 -0.112923086 -0.296557 -0.24948958 0.12188274 -0.20308813 -0.018731153 -0.06582837 -0.054196276 0.37026554 0.11072784 -0.13381991 0.077963024 0.233783 -0.23368374 0.1452922 0.27253097 -0.047593832 0.019783264 0.07220809 -0.14923888 -0.15669605 0.10620573 -0.006396276 -0.000119308315 0.21987543 -0.30899104 -0.19001529 -0.2330008 -0.12641197 -0.14522506 -0.13905227 0.1380422 0.27237692 0.101316646 -0.013701524 0.17136079 -0.15445879 0.0056678425 -0.090433635 -0.034950856 0.0647026 0.2639494 0.15510064 0.04451563 -0.14601628 -0.24135184 0.06263066 -0.0017298908 -0.081314445 -0.026906915 -0.04817006 -0.04780251 0.16982691 0.18462817 -0.04535611 0.033081688 0.024390567
23 -0.08217722 -0.09633389 0.25061175 -0.036462873 0.058178235 -0.25558776 -0.057899654 0.099983275 0.12993895 0.09732663 0.20725422 -0.13524598 -0.15405506 -0.24977951 -0.1127017 0.18968616 -0.02607214 0.11566698 -0.091066144 0.15758735 0.26672712 0.28572702 0.18574958 -0.111228354 -0.13982761 0.110331245 -0.16125268 0.038925473 0.16620621 -0.09397354 -0.3862629 0.052041695 -0.094870344 0.12941822 0.013619427 0.2738626 0.45484725 0.05405612 0.3548372 -0.000882944 0.027189186 0.077135764 -0.08126321 -0.11405577 0.11442224 0.230036 -0.11007555 -0.22095342 -0.22082311 -0.15422416 0.12589295 0.18470764 0.12930886 0.2104729 0.1510418 0.20779303 0.25041983 0.069397226 0.01393509 -0.036743477 -0.07071172 -0.13612884 0.33011746 -0.05632581 0.06439844 0.011874653 0.2444163 0.04980393 0.023380622 0.13960548 0.04846772 0.013368435 -0.32761988 -0.013366916 -0.1418043 -0.18459064 -0.07099696 0.06038398 0.044338148 0.24871229 0.024532788 -0.15155667 0.13807689 0.22766328 0.3103931 0.0050356537 0.16166143 0.006708621 0.029877942 0.17740388 -0.04694044 -0.16458108 -0.07788775 -0.08848552 0.2356093 -0.07109608 -0.20135276 -0.15407522 -0.011317589 -0.09018582 -0.18751508 0.14850825 0.0044948696 0.10915425 0.28975067 -0.091254994 0.090071484 -0.28726202 -0.12306459 -0.29818872 -0.041203227 -0.0346928 -0.07260915 -0.021324228 0.08251305 -0.12045633 0.15360112 0.17115337 0.085604034 0.03410663 -0.1083818 -0.11362055 -0.008036527 0.07108249 -0.030314915 -0.1417675 0.006705579 0.028434653
41 0.13163464 -0.32240126 -0.17923425 -0.10391473 -0.24878289 0.28149012 -0.09515246 -0.08031776 -0.032448635 -0.10874805 0.22543496 -0.065530926 -0.0237767 0.07354413 0.3528789 -0.057305515 0.50201637 0.40513036 0.1760036 -0.22374074 0.042995207 0.33740723 -0.16774455 -0.3502035 -0.1646692 0.033600636 -0.2410276 -0.122885406 0.22442625 -0.3009183 0.025460036 0.008943624 0.055276632 0.11533779 0.050034165 0.018649494 0.15043634 -0.1225248 -0.28564593 0.11918753 -0.22119904 0.18117206 0.05738621 -0.19484217 0.057745874 -0.16173802 -0.23347914 -0.2201322 -0.005971103 -0.0070267413 0.1760202 -0.104592785 0.15850168 0.20697632 0.24885724 0.16476712 0.17335638 -0.12259872 -0.18697347 -0.09875859 0.17760487 -0.2225622 -0.23639788 0.078365296 0.30972338 0.09176826 0.16022065 0.0670675 0.0043814136 -0.43313438 -0.06708558 -0.22076657 -0.48031595 -0.05286266 0.42002827 -0.043906827 0.1227186 0.09088635 -0.0912823 -0.05814838 0.03780796 -0.049286067 0.020439703 0.18432721 0.16130757 0.19807272 0.07772673 -0.2829952 0.13649641 0.19698614 -0.19204071 -0.0128615415 -0.107600026 0.18547013 0.538291 0.14934729 -0.12571435 -0.32595226 -0.23494023 -0.10949363 -0.23293252 -0.38822132 -0.012365598 -0.08102612 0.1960025 -0.071093716 -0.022085652 -0.27825552 0.07175946 -0.36684638 0.15126397 -0.08959913 0.3948032 0.3579283 -0.13718025 0.13831957 0.038543038 0.09819981 -0.0007356213 -0.0053535607 0.080475524 -0.010439492 -0.10172233 0.37133992 -0.07340997 0.01098059 -0.092923306 0.06700117
14 -0.0035379438 -0.10897566 0.32709628 -0.08294068 0.111767344 -0.36143637 0.20960186 -0.08080151 0.18928204 0.15591398 0.44685242 -0.18664283 -0.23820257 -0.4045624 0.06908777 0.17347468 0.029697942 0.13812932 -0.0032228995 -0.008173955 0.122301586 0.19204308 0.04197193 0.019227892 -0.15022051 0.17095926 -0.18584587 0.16742057 0.09025804 0.11387947 -0.3660642 0.19139922 0.07272346 0.17127119 -0.020076148 0.3551307 0.6532705 -0.056899555 0.43470034 0.08153288 0.17463902 0.22767782 -0.115327924 -0.088086545 -0.24585783 0.10444469 -0.25904763 -0.08614139 -0.20253068 -0.33277243 0.31236136 -0.2174031 0.018013002 0.06673172 0.15394083 0.04240858 0.053185824 0.23480271 -0.21632187 0.09963676 -0.17947051 -0.13906285 0.14718084 -0.23531094 -0.08775954 -0.13838184 -0.015351636 -0.17880163 -0.2284205 0.113164105 0.009445717 -0.31891412 -0.40336078 -0.010013834 -0.22101147 -0.49105445 -0.09787792 -0.17496724 -0.006200786 0.087895244 0.2914344 -0.16362727 0.05107845 0.22864565 0.4273755 -0.033866633 0.24083835 -0.10094655 0.052462228 0.42838165 -0.15498447 0.27388546 -0.018902695 0.035847574 0.4363367 -0.46290275 -0.32795393 -0.24296802 -0.13349979 -0.1585274 -0.1886492 0.06548597 -0.089400835 0.058026347 0.34007594 -0.22438227 -0.1048834 -0.11016108 0.16726343 -0.30032963 -0.035708915 -0.27706802 -0.067197844 -0.11505927 -0.12167785 -0.060875043 0.06022558 0.35128757 -0.17014313 -0.051706146 -0.08353629 -0.114387594 -0.06088464 0.30418563 -0.2894765 -0.14456461 0.12052529 0.05708818
37 0.13515025 -0.18634927 0.2877371 -0.06877332 0.29464018 -0.084892824 0.1479162 0.073314324 -0.14217463 -0.20364463 0.27237704 0.032556307 -0.47381434 -0.19471394 0.06795704 0.017565776 0.16406067 -0.11886416 -0.09740395 -0.0017868578 -0.18944445 0.36108586 0.03861809 -0.3816043 -0.11365635 -0.30955657 -0.15288511 -0.076423354 -0.07787809 0.1341118 -0.09439687 0.13665697 0.1821407 0.50743794 -0.20565341 -0.14400132 0.06743598 0.00066519255 -0.09079918 0.039516784 -0.32434452 0.08496022 0.035893112 0.16157182 0.24930845 -0.159566 0.15918456 -0.083653644 -0.1376973 0.21530348 0.14168306 -0.18732621 -0.16729732 -0.079227984 -0.052406114 0.34565943 0.50300753 -0.31661722 -0.030536834 0.020954454 0.19442308 -0.3574994 -0.004332157 -0.17676729 0.2836962 0.15120843 -0.055120904 0.087790385 -0.10938003 -0.103582576 0.21913788 -0.010662379 -0.22073571 -0.27585596 -0.17073336 -0.23287968 -0.16837443 -0.026693897 -0.37801456 0.15864491 -0.088130906 -0.013219347 0.14301196 0.17650695 -0.10876764 0.19231176 0.10703369 -0.17725079 0.28465408 0.16998518 -0.17383212 -0.35198408 -0.09081679 -0.22942537 0.35968363 -0.120940074 0.1389437 -0.06593989 -0.034535978 -0.15480998 0.120201886 -0.094002426 -0.34703678 -0.13421121 -0.165397 -0.13840337 -0.033391662 -0.06321459 0.0010835424 -0.1973487 0.16658826 -0.0771133 0.20416492 0.1691894 -0.17944923 -0.0973388 0.18355401 0.08145808 0.17566943 0.06886218 -0.11570672 -0.14155695 0.045091145 0.39423287 -0.18204758 0.25203934 -0.16848166 0.045697056
34 0.0769094 -0.16510037 0.13276176 0.16484445 0.09365794 -0.14698392 0.010236966 -0.09510906 -0.018862022 0.05392289 0.16425061 -0.22889493 0.09411785 -0.10865721 0.33960673 -0.011898653 -0.13445574 0.20517576 -0.28256884 -0.093427554 -0.022940569 0.23000145 -0.0072671296 0.026414718 -0.088325754 -0.11476313 0.094902 0.12791523 -0.10065921 0.0026835455 -0.3661189 0.10506805 0.04467087 0.1339832 -0.10537061 0.045055818 0.3861304 0.18696834 0.3423714 0.043547623 -0.032754138 -0.062883645 0.17221458 0.06488455 -0.029362787 -0.023953462 -0.05063139 0.0013108187 0.03180532 0.2906789 -0.05215033 -0.008896015 0.35899755 0.13703799 -0.049806677 0.13850927 0.007705515 -0.043531764 -0.16046438 0.38685077 -0.0653474 0.09895963 -0.040717736 -0.112399414 0.05912759 0.189931 -0.20457943 -0.05161385 -0.3280215 -0.12461868 0.25280145 -0.13106197 -0.24712786 -0.28844497 0.17113768 -0.16542076 -0.093599275 -0.11625414 -0.058739085 0.3822437 0.15581621 -0.12878114 0.047298457 0.3085333 -0.1993955 0.08207178 0.30564174 -0.08818017 0.02614304 0.11251487 -0.17918399 -0.14406082 0.15907419 -0.016403427 0.03594755 0.21388172 -0.31023562 -0.15756714 -0.28857118 -0.15167746 -0.11024125 -0.12849577 0.12393824 0.20604816 0.056459084 0.00017514084 0.17089595 -0.06047996 0.08461106 -0.048283286 0.003989763 0.022244405 0.31521347 0.071918875 -0.06419962 -0.15616627 -0.2286544 0.06358629 -0.045824863 -0.10541665 -0.039640162 -0.01994274 -0.023507038 0.22900747 0.17932767 0.0363166 0.020250462 0.035664618
36 0.0899406 -0.2641968 0.36827067 -0.040797092 0.16791183 -0.015353522 0.020424487 0.018150054 -0.10288272 -0.14156921 0.25559846 0.03294895 -0.40436652 -0.20135608 0.06445603 0.0011195983 0.23948081 -0.06915835 -0.08783809 0.006715114 -0.30202836 0.3949326 0.07026196 -0.45659152 -0.17163211 -0.29506734 -0.14834198 -0.061375976 -0.054433446 0.039176468 -0.023521138 0.15868305 0.0068250964 0.4988407 -0.1465514 -0.16272303 0.13233283 0.021641478 -0.044968273 0.046386827 -0.3146992 -0.0036523205 0.051584892 0.070073 0.31388703 -0.13692057 0.09138509 -0.093909405 -0.1216519 0.26539114 0.16730222 -0.17292288 -0.19080104 -0.0013876254 -0.18988137 0.34727535 0.48921064 -0.31876054 0.002803987 -0.0010381829 0.17955473 -0.36199772 0.040698163 -0.20581742 0.281769 0.13673805 -0.08662427 0.08170478 0.010768547 -0.17104633 0.20027542 0.0067521385 -0.2513673 -0.2701682 -0.03325834 -0.2203566 -0.13843356 0.040198117 -0.33513343 0.09744188 -0.16055617 0.052669533 0.17755206 0.20596741 -0.15268287 0.2874831 0.116450615 -0.09716525 0.2109917 0.24903074 -0.15683047 -0.3994124 -0.15047877 -0.25307027 0.3130536 -0.09077352 0.19780672 -0.061861895 -0.044579376 -0.12900038 0.035961572 -0.12973656 -0.30437452 -0.19518074 -0.026263488 -0.1389933 -0.0005298059 -0.1384948 -0.0128584765 -0.2673806 0.17251505 -0.040858336 0.35164946 0.18530953 -0.12579976 -0.12592097 0.18938538 0.13201475 0.13981242 0.04338541 -0.044450037 -0.15591453 0.011263187 0.44420376 -0.15677778 0.2695915 -0.27771097 0.048999276
18 -0.088377096 -0.0819325 0.2796047 -0.08522031 0.12395517 -0.33908176 -0.026880356 0.17368273 0.2462032 0.097764924 0.21361774 -0.21175617 -0.1812077 -0.27855745 -0.12827975 0.18733229 -0.06685338 0.10658183 -0.1438869 0.15388222 0.37201375 0.30583772 0.18176368 -0.044860765 -0.13019428 0.13782817 -0.17568162 -0.035203226 0.18939982 -0.034113288 -0.48885491 0.015208658 -0.08422185 0.10400832 -0.067339614 0.29891554 0.42571115 0.011002734 0.37977487 -0.001991688 -0.02782936 0.07060194 -0.110304035 -0.10237636 0.047853947 0.26756278 -0.06444181 -0.14685273 -0.22555628 -0.12749544 0.030175176 0.24613485 0.15809664 0.18428533 0.09592709 0.31120664 0.27764797 0.1497987 0.00080248655 -0.022325953 -0.11781701 -0.12616895 0.34120467 -0.044491448 0.18588637 0.051595174 0.32121718 0.01712179 -0.011007827 0.122884296 -8.752568e-05 0.014837497 -0.32739666 -0.029227497 -0.2284262 -0.24271749 -0.07064842 0.11742178 0.016603818 0.20885482 0.013538975 -0.17683892 0.09053555 0.22218885 0.24723203 0.031432126 0.15619066 0.020314861 0.019825062 0.13627723 -0.03543795 -0.15318073 -0.17006895 -0.07667759 0.20854904 -0.11199805 -0.19584297 -0.19678321 0.017664786 -0.08760932 -0.19000788 0.1626929 0.02583208 0.17232005 0.2553878 -0.092940345 0.08944042 -0.32593697 -0.12871729 -0.30301002 -0.037961617 -0.04230243 -0.113731556 0.011973837 0.08641797 -0.10872403 0.053181842 0.15210862 0.15161704 0.046041552 -0.23497975 -0.20939364 0.0034538622 0.07006762 -0.014648347 -0.09057194 -0.016268732 0.079752974
40 0.13098866 -0.20597208 0.32949594 -0.0146137485 0.20671417 0.01695684 0.030599317 -0.024356 -0.07684445 -0.14064988 0.19510241 0.08975525 -0.4518547 -0.2307344 0.0526245 0.031396154 0.21566273 -0.07317395 -0.062504984 9.9395234e-05 -0.28938186 0.38805786 0.055288862 -0.41226837 -0.14827125 -0.30122378 -0.11335623 -0.055101607 -0.07343158 0.109507345 -0.046111483 0.18955998 0.1238752 0.51809543 -0.18141729 -0.1981289 0.094356135 0.016960893 -0.03607062 0.022232631 -0.2872425 0.018524632 0.047971606 0.08601437 0.31180736 -0.14034267 0.085284464 -0.09642889 -0.13582304 0.22852252 0.14886083 -0.18427154 -0.1396873 -0.08280338 -0.16152559 0.35043052 0.4492435 -0.2762964 0.019349413 -0.036513552 0.20610303 -0.28633645 -0.01066312 -0.15801628 0.2922642 0.13797283 -0.12015987 0.08157615 -0.043260485 -0.20472977 0.23143812 0.007144977 -0.2740558 -0.2529588 -0.14425129 -0.23054528 -0.18479091 0.025895556 -0.36137918 0.19103731 -0.06751093 -0.026272034 0.16321234 0.24158585 -0.09349417 0.18269321 0.21633475 -0.15574017 0.29370797 0.20901698 -0.19435026 -0.44632003 -0.117281914 -0.26392967 0.33505574 -0.13145027 0.15142167 -0.055215903 -0.06194209 -0.18374616 0.15517892 -0.10694021 -0.30464175 -0.09544253 -0.13033718 -0.1334736 0.007681026 -0.098160364 -0.015773153 -0.18328792 0.13249706 -0.0647252 0.32671508 0.12892434 -0.18000658 -0.17374845 0.17605972 0.14674203 0.10222015 -0.013490313 -0.071592025 -0.16121861 0.051197156 0.40258372 -0.20391683 0.28032085 -0.21466477 0.0012702647
25 0.0047165975 -0.18623886 0.21743788 0.0035101932 0.15470698 -0.03637619 0.067213595 0.025108075 -0.055101212 -0.066018105 0.12495563 0.06509196 -0.34415752 -0.15545514 0.033423673 0.1385337 0.26927254 -0.015865093 -0.0050611123 0.11442227 -0.2615606 0.41140783 0.007938253 -0.38736075 -0.14690152 -0.16628198 -0.16052158 -0.05374251 0.035066392 0.06427629 -0.06896915 0.20855272 0.065036625 0.44987848 -0.21974802 -0.1353322 0.08169781 -0.0068770954 -0.07573744 0.019428663 -0.21899556 -0.044099554 0.0560543 0.067234464 0.30773297 -0.07794998 0.032221496 -0.11180932 -0.111175254 0.1433917 0.11214155 -0.14747518 -0.060909353 -0.040724665 -0.08209094 0.3155406 0.40817177 -0.1068025 0.004617002 -0.05851034 0.13659032 -0.26888403 0.04874013 -0.16657321 0.34659716 0.14550179 -0.00046208248 0.046907917 -0.02268785 -0.22929803 0.27557644 -0.038399298 -0.22790034 -0.3113664 -0.03779246 -0.1695018 -0.14121114 -0.045526173 -0.33011332 0.09167537 -0.12491059 -0.054163635 0.03128718 0.24172556 -0.04578403 0.11614506 0.09570769 -0.13660626 0.28806823 0.24457069 -0.18842515 -0.44057485 -0.14379917 -0.19425377 0.30235898 -0.016539352 0.18872403 -0.070861235 0.04789852 -0.15003455 0.12195217 -0.14720051 -0.3009938 -0.15231052 -0.08064072 -0.08066734 0.0025101553 -0.070344605 -0.007839031 -0.14652634 0.1657561 -0.053313456 0.284409 0.14468619 -0.20760761 -0.10953049 0.09125915 0.06442242 0.1562484 0.009134118 -0.06593707 -0.16021875 0.06439926 0.36290908 -0.17400047 0.247792 -0.24579109 0.04901798
24 0.16932906 -0.20305474 0.14725854 0.18474948 0.017715774 -0.14563593 -0.03583306 -0.059664708 -0.06854335 0.09579314 0.13331753 -0.22429237 0.1457933 -0.10635418 0.33188942 0.01797332 -0.09010274 0.30113593 -0.15835729 -0.13259847 -0.012654296 0.24427831 0.026063189 -0.045299847 -0.02033761 -0.121175304 0.08559554 0.16934185 -0.11693739 -0.024881102 -0.32397068 0.07879064 -0.00019861343 0.10756558 -0.091600575 0.021224339 0.47292793 0.20324244 0.30617243 0.0019854687 -0.048712473 -0.062354214 0.05844103 -0.010973482 -0.027279504 0.051437747 -0.17199248 -0.025867999 0.082860895 0.30758896 -0.066084094 0.05297338 0.32447287 0.1283243 -0.092168815 0.15613568 0.060528934 -0.024570337 -0.09943584 0.3373771 -0.09308971 0.02250006 -0.083582334 -0.08265461 -0.051566493 0.18145682 -0.12490387 -0.05561363 -0.2863439 -0.07009881 0.11937269 -0.15550536 -0.21790749 -0.26493803 0.22944668 -0.11369917 -0.06705366 -0.04953646 -0.006841609 0.21910825 0.125121 -0.048470125 0.029922528 0.34230483 -0.20873086 0.1418113 0.3651764 -0.04330477 -0.029817874 0.19402015 -0.16765665 -0.2313982 0.16546862 -0.036075816 -0.033769526 0.19932798 -0.23958209 -0.1869636 -0.26529956 -0.09504009 -0.18588907 -0.05095858 0.26385748 0.23217906 0.23551838 0.0012807399 0.19728479 -0.15778281 0.054988787 -0.13431689 -0.024799773 0.043084733 0.3283751 -0.045513816 -0.0052735135 -0.08210474 -0.20767523 0.1455657 -0.06658722 -0.09942387 -0.05458827 -0.03263701 -0.012428306 0.28351516 0.16948052 0.07541046 -0.05497718 0.10764499
38 0.13980563 -0.17332903 0.32107535 -0.012009696 0.18484578 0.019269714 0.046311416 0.07300315 -0.1605881 -0.17298068 0.16933478 0.070415184 -0.41970307 -0.22674033 0.05382579 0.041430093 0.15858546 -0.014115315 -0.09234701 -0.01194938 -0.2744743 0.33613676 0.10026205 -0.4901056 -0.09249524 -0.37858886 -0.13496166 -0.041506574 -0.08437022 0.057156615 -0.0063559283 0.21419379 0.1155738 0.4895237 -0.18544747 -0.19115908 0.11683223 -0.009350728 0.006463056 -0.05726323 -0.24071017 0.034600712 0.0625184 0.018665526 0.28099656 -0.08622583 0.072077885 -0.10066109 -0.098559156 0.26105654 0.15533026 -0.20360346 -0.12539615 -0.07630735 -0.078209326 0.29625997 0.50551313 -0.32498294 0.014916001 0.005619163 0.15739982 -0.3196392 -0.025235515 -0.113384075 0.2274465 0.17598578 -0.09359072 0.12038524 -0.01998762 -0.19150302 0.20695013 0.06764403 -0.25815326 -0.22087766 -0.12103751 -0.26866397 -0.14220619 -0.017149262 -0.3780632 0.19903673 -0.053914905 -0.036298234 0.17623213 0.299012 -0.08510083 0.17625229 0.21971722 -0.12200821 0.36258414 0.22408001 -0.13745558 -0.5096685 -0.051632352 -0.2482963 0.32474682 -0.14675753 0.10017269 -0.06586743 -0.079359844 -0.1615339 0.12291066 -0.07361448 -0.3311811 -0.07877842 -0.10260153 -0.13862677 -0.03787217 -0.023204071 -0.008210037 -0.19424495 0.14823826 -0.06420165 0.30477986 0.15542518 -0.218264 -0.1435944 0.21785483 0.16641101 0.1788532 -0.026184749 -0.064166516 -0.120078065 0.08035854 0.38024968 -0.1941554 0.27509093 -0.2253279 0.050524388
39 0.14576226 -0.19577967 0.3095199 -0.035904933 0.22562379 -0.034257837 0.09736701 0.03942053 -0.123291515 -0.13012363 0.217053 0.044101756 -0.40252066 -0.28750613 0.0009258637 0.066709444 0.18079333 -0.06777368 -0.09182442 0.030283188 -0.32222205 0.36198995 0.060658757 -0.4408815 -0.15294242 -0.344131 -0.12699054 -0.09381561 -0.064847775 0.13432676 -0.07317233 0.23231462 0.12801616 0.5434993 -0.18270925 -0.09290543 0.11464149 0.0232407 -0.025644595 -0.0117355855 -0.21796182 0.0152475415 0.038806174 0.10028254 0.32707757 -0.13618843 0.08546375 -0.1349309 -0.14508757 0.16636385 0.20313141 -0.26018384 -0.17601338 -0.081454545 -0.123665154 0.29313567 0.47066638 -0.24892057 -0.006856755 -0.0355657 0.107885964 -0.30826792 0.05539717 -0.18901974 0.25154996 0.13518944 -0.10158398 0.063147746 0.0038838354 -0.14315793 0.24440466 0.028033126 -0.26239482 -0.25045308 -0.15389244 -0.2779191 -0.15666737 -0.054704603 -0.3687428 0.22041865 -0.117660604 -0.08568927 0.20052172 0.28290543 -0.043107845 0.19101402 0.15045302 -0.14149676 0.3444934 0.1939404 -0.15038078 -0.43306476 -0.10249537 -0.21102826 0.33114737 -0.092802055 0.17282368 -0.01230531 0.0031418835 -0.16692767 0.17661145 -0.1394918 -0.33865747 -0.12312487 -0.12854834 -0.16687652 -0.013688276 -0.009013692 -0.07163494 -0.19513701 0.12304423 -0.051969856 0.26735687 0.12033032 -0.13075456 -0.17007922 0.23004809 0.13360535 0.12579067 0.054241776 -0.05791333 -0.12334248 0.005250415 0.33526152 -0.13785797 0.3127743 -0.14907146 0.05750114
42 0.18362367 -0.3816287 0.19904229 0.048405156 -0.0618834 -0.24612917 -0.106130786 -0.09102001 0.0059915525 0.19934043 0.17351118 -0.2550703 -0.2438597 0.27408442 0.26849246 0.3172589 0.1945719 -0.10209584 0.17526506 0.05007209 -0.109795906 0.37420547 0.0131397275 -0.20878176 -0.22198874 0.33691964 -0.119702555 0.13396262 0.10035809 -0.020336686 -0.20883809 -0.008618149 0.22719567 0.4957643 -0.10016746 -0.1542004 0.2798233 0.31761426 0.02399063 -0.016066404 -0.29531726 -0.045520745 0.0065888297 -0.14815229 0.41267046 -0.28562492 -0.4118121 -0.12859638 0.087973356 -0.036390807 0.10948282 -0.15214983 0.34408322 0.15741436 0.00047083193 0.4597897 0.2832405 0.084360704 0.1468493 0.13613118 0.033871025 0.18408458 0.10187362 -0.18131861 -0.017328994 0.093920626 0.09844507 -0.1838657 0.18435174 -0.15272479 0.32588744 0.2006416 -0.017885925 -0.24675661 0.16352959 0.0072427876 0.08448304 0.12578703 -0.2360952 -0.09182199 -0.31318542 -0.40463558 -0.09676906 0.26194155 0.10128549 -0.2736515 0.09511586 0.026228989 -0.15849884 0.009122748 -0.025055572 -0.32941934 -0.120708965 -0.19721456 0.18169752 0.10418685 0.08158358 0.0009821696 -0.00063162134 -0.034581807 0.06489706 -0.26799408 0.2222721 0.09202938 0.15850589 -0.13152042 0.06946951 0.041199904 -0.1965119 0.036125503 0.10738997 0.13854156 0.07267816 -0.19104351 -0.019669505 -0.045903936 0.075540446 0.08607508 -0.060664758 0.033674546 -0.125183 -0.055593386 -0.12150652 0.020854965 -0.06657508 0.10456651 -0.11827761 -0.022983858
58 -0.23250099 -0.20153348 0.5367882 -0.046605594 0.19490989 -0.05934974 -0.36715078 0.26330912 -0.102262065 0.3116735 0.31463325 -0.29110184 -0.06365045 -0.219243 -0.06304202 -0.17494956 -0.050551686 0.096220285 -0.08250376 0.20880857 0.29109246 0.05838524 0.41150096 -0.32026094 -0.025746526 0.02087589 -0.084388986 0.34620184 0.1006641 -0.17568493 -0.5581921 -0.010978202 -0.2935623 -0.062383056 0.2616891 0.11241791 0.28575385 -0.26514298 0.3992334 -0.013814581 -0.14867383 -0.08276496 -0.082358904 -0.30398387 0.13749997 0.35641918 -0.34683937 0.069027334 -0.4679511 0.32262793 0.27579814 0.46369788 0.06853425 0.34250253 -0.2411047 0.018174836 0.07562163 -0.16432542 0.20648162 0.23643504 -0.2450847 -0.1501327 0.29978922 -0.25052252 0.04152976 -0.055836894 -0.018714206 0.38276935 -0.0943715 0.3361333 0.08920108 -0.029911231 -0.3033968 -0.24184836 0.10590073 -0.37895623 -0.2548866 0.048079018 0.08040653 0.3208874 -0.1666101 -0.011942104 0.0852129 0.3950095 0.34696501 0.07638043 0.36976564 -0.0019427994 -0.18181145 0.08657646 -0.098406285 -0.15821369 0.11210699 -0.18060982 0.16603222 0.09367258 -0.28648505 -0.53866065 -0.29953057 -0.34297448 -0.43736756 -0.051581163 0.07267057 -0.04613024 0.59828234 -0.17264652 0.13257724 -0.4417135 0.114327855 -0.36694416 -0.10026611 -0.05838767 0.15127027 0.011987717 -0.121496096 0.08983498 0.17416906 0.37464038 0.16213809 -0.106019825 0.097755186 -0.083772175 0.037478436 0.44408992 -0.2663362 -0.1934622 -0.30995798 -0.13500747
35 -0.055389374 -0.09179532 0.2769922 -0.10184612 0.09882464 -0.25082245 -0.07566249 0.095891 0.18718742 0.109522864 0.15609023 -0.1184398 -0.03677215 -0.30503252 -0.13384847 0.13115306 -0.03591802 0.08537582 -0.13300134 0.18117115 0.33283994 0.20505805 0.20387354 -0.019471709 -0.09796045 0.1499399 -0.15497924 0.018792788 0.18081143 -0.0053939396 -0.4815528 0.059684627 -0.19523616 0.061971527 0.080898136 0.30022424 0.3966161 0.07462788 0.3978847 0.021362985 -0.0026306275 0.07072832 -0.13486566 -0.096783936 0.19506784 0.27108008 -0.03939038 -0.24912748 -0.28444022 -0.0381387 0.08346097 0.2516208 0.17162883 0.20351277 0.021260964 0.1749465 0.242464 0.13072023 -0.0341075 -0.034958906 -0.15177625 -0.12945221 0.3701243 -0.054938793 0.091133945 -0.027924307 0.21388277 0.02917936 -0.021935903 0.15896152 -0.006729551 -0.035859853 -0.30695462 -0.013746579 -0.21790585 -0.20608307 -0.13466547 0.1189376 0.04147141 0.30216673 -0.009556411 -0.13139433 0.17388141 0.31350464 0.29413715 0.09732061 0.19649279 -0.028591644 0.05446584 0.13255467 -0.03541112 -0.27113706 -0.068519175 -0.1047789 0.12326211 0.01741191 -0.2169963 -0.21052043 -0.021939592 -0.15099773 -0.23127797 0.17943634 0.07082876 0.18111433 0.34230444 -0.15440516 0.054505005 -0.349618 -0.13257244 -0.33629814 -0.083417706 -0.025342898 -0.035629503 -0.07283916 0.14562371 -0.12812114 0.08368434 0.119453676 0.08385329 0.09889909 -0.09996961 -0.18238688 -0.058011573 0.051684357 0.034980454 -0.121332675 -0.056008626 0.035241865
47 0.21115987 0.017475938 0.11471307 0.13670109 0.19456007 0.06126579 0.15553361 0.01749233 0.00136959 0.06934262 0.32488215 -0.25370175 -0.057656717 -0.19723035 0.42949894 -0.110289134 0.0442738 0.13045226 -0.12866966 -0.25539637 -0.16772601 0.18131408 0.004522792 -0.025680535 -0.10157102 -0.14224651 0.23576201 0.08669995 -0.0375145 -0.11013473 -0.27026242 0.14590403 0.09449068 0.3309686 -0.110559806 0.080432385 0.4053065 0.096639186 0.2195438 0.058401123 0.03794178 0.0065228296 0.0866688 0.0478525 -0.1373411 -0.23096493 -0.14629354 0.08502707 0.024929143 0.09422109 0.07448421 -0.11968927 0.23081344 0.14508025 0.053306784 0.09606392 0.08123102 -0.04967393 -0.23799644 0.14724338 -0.11885351 0.007818998 -0.05749109 -0.16664502 0.10607824 -0.034785047 -0.088668376 -0.15396832 -0.4180816 -0.045454893 -0.047595233 -0.025978386 -0.29839337 -0.0063038673 0.048158575 -0.24163604 -0.003254549 -0.27478492 -0.10534752 0.29161856 0.21060327 -0.16754164 -0.0027254736 0.09667432 -0.0052806525 -0.076020464 0.4157084 -0.14931151 0.020191053 0.34065753 -0.082014084 -0.15163422 0.098482884 -0.026401518 -0.021427525 0.008378436 -0.35460907 -0.05797801 -0.35057688 0.016487032 0.06178347 -0.3300373 0.030222742 0.08600409 0.22190182 -0.13859525 -0.03674791 -0.06775484 0.12991755 -0.14819866 0.020123916 -0.2089785 0.42393884 0.05607062 -0.09220138 0.07227398 -0.21266744 0.23343848 -0.083727576 -0.072753794 -0.020833755 -0.006987482 0.056774214 0.30081475 0.08150958 0.080944195 0.16340874 0.13389166
59 -0.20633692 -0.317144 0.50827456 -0.10120301 0.18192612 0.036875833 -0.36593178 0.23450567 -0.14119509 0.36330244 0.25613886 -0.19925062 -0.15078406 -0.115293525 -0.004274443 -0.17225052 -0.05500863 0.21362706 -0.12944695 0.26262954 0.3232742 0.020674733 0.2859188 -0.21733455 -0.101828225 -0.033151705 -0.11177371 0.32147402 0.19765334 -0.11847039 -0.5745888 0.13480142 -0.26675966 -0.04960045 0.36000726 0.23691131 0.2803047 -0.22632359 0.536852 -0.0049270005 0.057134785 -0.041876394 -0.15215027 -0.29956576 0.1405907 0.2903237 -0.31671673 -0.0143208 -0.4817243 0.30658996 0.29163572 0.46484402 0.18372235 0.35006094 -0.22778235 -0.08952554 0.089130364 -0.11356995 0.2695415 0.21332559 -0.19700746 -0.03032259 0.36173415 -0.20393036 0.02581847 -0.07798784 -0.045066845 0.39714757 0.043771666 0.33678296 -0.0280564 0.11446228 -0.20469145 -0.18065634 0.09278412 -0.34708872 -0.32769072 0.1811494 0.028490227 0.47076142 -0.21010779 -0.051808592 0.068376504 0.4201684 0.4759709 0.062145986 0.43768215 -0.09698181 -0.14986193 0.21792358 0.00663587 -0.21482322 0.06985117 -0.123294435 0.021594258 0.051251817 -0.43946928 -0.4797595 -0.3127643 -0.29649797 -0.38699308 -0.05968418 -0.013142893 -0.10114035 0.59423476 -0.03171587 0.06832378 -0.3889749 0.11520226 -0.30479127 -0.20722036 -0.16921356 0.16840516 -0.019975163 -0.06477619 0.0636766 0.22930153 0.37836316 0.18152393 0.10066793 0.11129321 -0.00222788 -0.12174132 0.29472136 -0.22786269 -0.22057335 -0.29356813 -0.03853914
48 0.12630041 -0.2199189 0.27075726 -0.005093721 0.025559442 -0.05083177 0.0042594247 -0.018793944 -0.00315374 -0.042389303 0.08733007 -0.056418825 -0.13988148 -0.01751723 0.15230557 -0.05905692 0.057009175 0.068091325 -0.013287333 -0.122533485 0.026142137 0.22084832 -0.063563764 0.005235253 -0.22990273 0.0069876225 -0.05163206 0.0066744275 0.048195243 -0.06889797 -0.2360137 0.016071128 0.10062582 0.19610597 -0.15680039 -0.110472865 0.23273154 0.13701858 -0.11885259 -0.024792807 -0.23133701 0.03229407 -0.0064079775 0.07800461 0.11176512 -0.14953595 0.0833458 -0.14935273 0.12604679 0.109452024 -0.10226454 -0.09584441 0.1197301 0.00521637 0.023261491 0.26164865 0.19244774 -0.0785142 -0.1226496 0.0031105168 0.23890838 -0.116840266 0.06405538 -0.049332846 0.1868533 0.11174667 0.04080519 -0.116575345 0.003744753 -0.30046672 0.1448624 0.065463275 -0.21697366 -0.2919155 -0.0018469605 -0.054565437 0.062078904 0.11535523 -0.13552885 0.07245546 -0.06297261 -0.10262843 0.10934301 0.13539775 -0.20562178 0.052250348 0.22280201 -0.14693944 0.11636876 0.10715214 -0.16302894 -0.09584671 -0.12922123 -0.017778633 0.15038416 0.08794757 -0.09372504 -0.18501136 -0.03695486 0.04984169 -0.036411945 -0.049575124 0.06356368 -0.00096212525 -0.0077084536 0.056224007 0.09055363 -0.106221534 0.024601676 -0.103058875 0.06335275 -0.005784168 0.151915 0.049617056 -0.0032463996 -0.05673586 -0.029036038 0.1877642 0.12264031 0.036333565 -0.1706879 -0.16897878 0.0054818993 0.11450662 0.038815144 0.03469376 -0.22947438 0.03769202
43 0.2972587 -0.19863589 0.47616464 -0.07730457 0.018637555 -0.09740764 -0.19629402 0.09691066 0.05660196 -0.09307268 0.0024725725 -0.09225416 -0.063419946 -0.0805793 0.3430316 -0.19736284 -0.052545 0.10806782 -0.04972062 -0.16454321 0.28258777 0.034772944 0.18014923 -0.029684283 -0.12607066 0.008964935 -0.068739496 0.17548542 0.1296328 -0.0664646 -0.26013502 -0.013977567 -0.011254122 0.011670895 -0.09198017 -0.0575298 0.16698909 -0.036573123 0.27073753 -0.1773558 -0.01412436 0.20273262 -0.11703846 -0.20792563 0.046953887 0.025270933 0.1539659 -0.2979415 -0.0017243341 0.033010256 0.13431796 -0.13438809 0.18116467 -0.027119394 0.13353416 -0.008375114 0.04521552 0.04108483 -0.08527383 -0.17618614 0.3097252 0.0015551016 0.10522114 0.13066402 0.11230497 -0.03353395 -0.06024956 0.004970227 0.218123 -0.3765079 -0.08116054 0.12582305 -0.22404873 0.021875324 -0.08464257 -0.19858369 -0.027257776 0.19118701 -0.14804102 0.1822542 0.09142215 -0.055821996 0.23819512 0.3476091 0.07296236 -0.04642771 0.50225604 -0.30961242 0.29117286 0.12912458 -0.19150043 -0.1844172 -0.09070862 -0.07355215 0.20604867 -0.058587823 -0.36722922 -0.2157797 -0.10489347 -0.13820145 -0.04204627 0.11326394 0.12977053 0.035518598 -0.11371951 -0.058837973 -0.1856356 -0.007845152 0.12656197 -0.09502191 0.012522479 -0.083748594 0.046414077 -0.037354756 -0.15816239 -0.0064553996 0.18777417 0.21413761 0.03402216 -0.01796325 -0.17031705 -0.02973229 -0.037057802 0.057948608 -0.054905776 -0.098616 -0.25094923 -0.010712042
54 -0.26389256 -0.43393674 0.110912584 0.10774137 0.22574002 -0.3288161 -0.084489845 0.22271201 -0.1895166 -0.07602509 0.15124795 -0.40953225 -0.08239127 -0.20795566 0.05438472 0.10110102 0.0002064204 0.13913098 -0.43258354 0.51377505 0.31065938 0.054795917 0.11516993 -0.172582 0.06292279 0.18102325 -0.35912535 0.028997937 0.027977845 0.1897446 -0.60157645 0.20862897 -0.42146856 -0.23788665 -0.09460611 0.33808857 0.06671826 -0.21148795 0.25273564 -0.119945675 -0.06972047 0.043233328 0.100886635 -0.10973745 0.039425924 0.44177487 0.121300615 -0.1811109 -0.49520352 0.17799303 0.43294227 0.07813494 0.29074854 0.06577727 -0.13707955 -0.057675693 0.37299603 0.17390591 0.03421813 0.3932514 -0.20192422 -0.16651596 0.13176315 -0.3636778 0.11000351 0.22023144 -0.06574589 0.20794684 -0.17377722 0.34633645 -0.07071028 -0.26730344 -0.30928722 -0.27281365 0.017633028 -0.48788863 -0.41737986 0.12703636 0.072912574 0.28316694 -0.094421506 0.12367995 0.18813442 0.2957473 0.4450225 0.31287286 0.21152307 -0.025191778 0.092133254 0.046245366 0.03219154 -0.3018364 0.08321152 0.09185549 0.030287065 0.08745854 -0.17413583 -0.45744768 -0.21151419 -0.45461088 -0.64754534 0.26118585 -0.07333386 0.39357373 0.21837328 -0.1747219 -0.19483383 -0.30182147 0.17829622 -0.59786433 -0.081273474 -0.39623705 -0.13296553 0.18145812 -0.26321322 -0.0905826 0.07057295 0.13597345 0.123335294 0.19183905 -0.23827074 -0.26298094 -0.13060714 0.3663186 -0.08346566 0.1259734 -0.20581596 0.20024294
46 0.37511107 -0.32214507 0.044902626 0.1006601 0.0962983 0.28802183 -0.15275055 0.017303135 0.15832426 -0.24427018 0.02664658 -0.42448452 -0.24720488 0.0046105385 0.47130793 -0.068742186 0.004688251 -0.052817203 -0.23587759 -0.12358055 0.3450967 0.16391148 0.0598457 0.14864165 -0.18470201 0.039279226 -0.087352395 -0.15849349 0.07230608 -0.26433524 -0.33070683 0.04762725 0.33462724 0.10891552 -0.009591678 0.0805445 0.10902831 -0.037097905 0.3457645 -0.0032020481 0.13633291 0.28942204 0.2362422 -0.21489452 0.10251156 -0.08442567 0.15334837 0.090702236 -0.28798622 0.03174173 0.11779748 -0.039543677 0.5035632 0.2572851 0.117886424 -0.1468294 0.064009786 -0.030858673 -0.04004463 0.16804965 -0.015005936 0.1486556 0.096514225 0.33066347 0.1852264 0.117910706 -0.08268659 -0.024564058 -0.120562874 -0.26229712 -0.1040552 0.09111415 -0.3288844 0.23488678 -0.12230013 -0.23037346 -0.054800168 -0.10026502 -0.24883991 0.3779414 0.07402714 -0.5019801 0.123448774 0.22539784 0.16587931 -0.21168186 0.40519264 -0.07544514 0.3323944 -0.053130403 -0.02205471 -0.29407376 -0.04660843 0.0031676407 -0.05971461 0.023130061 -0.42719167 -0.05218209 -0.5671058 -0.1364258 0.1959886 -0.11159429 0.04376671 0.37883285 -0.22370048 -0.39110887 -0.06345215 0.25867552 -0.09103532 -0.16468042 -0.018139036 -0.324382 0.29787034 0.15265147 -0.28709593 -0.28191704 0.12799045 0.15401529 -0.09661467 -0.15569077 -0.29861677 -0.3734011 -0.10946343 0.014692032 0.027994737 0.25020865 0.038672414 0.09245071
76 -0.22937474 0.07646521 0.1400254 0.13251518 0.15839614 -0.33175692 0.18691255 -0.03618758 0.081268735 0.081569135 0.44552416 -0.118114464 -0.060530264 -0.16137595 -0.011329331 0.43113318 -0.1666624 0.066767365 -0.24023959 0.327684 0.16068915 0.17045663 0.35884562 -0.25776964 -0.26006496 0.34682086 -0.28553644 0.36103192 0.1289125 -0.09540654 -0.2704382 0.2032175 -0.20317279 0.24583137 -0.22511068 0.19812562 0.7867572 0.10514748 0.48181137 -0.07593119 0.10310126 0.14385547 0.26528725 -0.15848173 0.033796813 0.036513735 -0.1977745 -0.29975155 -0.1956224 -0.35546726 0.45587397 -0.1928964 -0.016378833 0.3166768 0.3300355 -0.039415006 0.25542998 0.15597382 -0.2369143 0.18180457 -0.20000963 -0.16056652 0.14009935 -0.17980069 -0.078883484 0.09131166 -0.049762905 -0.18790704 -0.33389026 0.22862186 0.17268257 -0.21541926 -0.4103323 -0.029093359 0.0890951 -0.50828075 -0.0030457098 -0.16135852 0.1803801 0.40443766 0.37638298 -0.05000412 0.14338617 0.010343851 0.517353 -0.14339061 0.059687067 0.010068285 -0.005780664 0.5375312 -0.28468788 0.16985877 0.04249089 -0.1399171 0.3984368 -0.35328946 -0.2586759 -0.2228388 -0.21077661 -0.108965546 -0.18756573 0.26496097 -0.34313667 0.032590095 0.08216954 0.04607242 -0.23619385 -0.097412966 0.1629885 -0.130488 0.041705303 -0.19599082 -0.06010868 0.09704867 -0.21565363 -0.1429238 0.046491235 0.33088005 0.07611895 -0.27813953 -0.09457159 0.094266616 -0.010545679 0.3125121 -0.18976638 -0.3251186 -0.08072298 0.003364685
49 0.1150974 -0.014921686 0.25437286 0.06618611 -0.038152657 -0.12850326 0.089700215 0.13341343 -0.017612657 0.020154035 0.17240328 0.009408259 -0.007806833 0.025267215 0.13366793 0.013163848 -0.03154375 0.14888984 0.07603135 -0.16122802 0.13887408 0.16000383 0.020831903 0.0042865383 -0.20180757 0.060315423 -0.06528664 0.13050292 0.07112621 -0.103874065 -0.19019717 -0.013813978 0.09143837 0.07456568 -0.17760268 -0.12546071 0.4162939 0.18025634 -0.062274605 -0.12822688 -0.17613827 0.11755342 -0.034331143 -0.018472267 0.014711638 -0.100307 -0.07265507 -0.21918945 0.18443128 -0.0006669317 -0.12686351 -0.07771588 0.05116439 0.023797931 0.19621673 0.12715364 0.14780644 -0.04494214 -0.19657627 -0.12186921 0.1914748 -0.14903459 0.09509943 -0.04588275 0.07212577 0.05001444 0.112167306 -0.1540772 0.099395536 -0.30730376 0.055588946 0.14983483 -0.21141954 -0.2540168 -0.012697282 -0.066901796 0.17978208 0.14570062 -0.07869722 -0.05280984 0.061195083 -0.040666476 0.13054991 0.15529425 -0.09875022 -0.09172766 0.3063234 -0.22595195 0.12485741 0.25876728 -0.19270861 -0.046953417 -0.20268378 0.012854736 0.21836752 0.011622357 -0.22956361 -0.3586369 0.060951065 0.050573044 -0.15367016 0.05549945 0.047463465 -0.052921914 0.0649648 0.11270387 0.07345554 -0.08612309 0.037988514 -0.16909856 0.110999465 -0.01873517 0.05704372 -0.02000206 0.009723787 -0.014645155 0.06623697 0.33427745 0.13396144 -0.012630067 -0.19065925 -0.12804058 0.039483264 0.10361732 0.049149893 -0.05439054 -0.35639626 0.1685309
51 0.16226552 -0.42961833 0.092382796 0.17633918 0.025659237 -0.25202155 -0.19072095 -0.12315747 -0.11293637 0.3016656 0.034678925 -0.16711256 -0.23198865 0.30336004 0.13462047 0.44020975 0.24515407 -0.007771623 0.035989113 0.21868186 -0.22745034 0.30782816 -0.076410055 -0.21333654 -0.2483328 0.32884675 -0.05900316 -0.008943669 0.09670696 -0.16345736 -0.15895388 0.17865273 0.46459973 0.59352994 -0.19013603 0.078857556 0.019450547 0.15265578 -0.21387617 -0.054403048 -0.213594 -0.030853722 -0.100601695 -0.12844339 0.32285145 -0.16482085 -0.48117277 -0.03671826 -0.044059727 -0.14029774 0.058083694 -0.15770973 0.48106292 0.21483248 0.17049144 0.43394014 0.22060028 0.086239524 0.15719022 0.07533932 0.09777053 0.14372033 0.19514407 -0.15015857 0.0069386857 0.23089606 0.359513 -0.23680876 0.18935569 -0.06558535 0.350234 0.28724656 -0.054497436 -0.34943727 0.21529011 0.12621135 0.00047062832 0.0050270357 -0.1708583 0.09378498 -0.38348797 -0.48077324 -0.14174698 0.390984 0.14128031 -0.48829502 0.19036041 0.015344065 0.088803716 0.2241459 -0.050458804 -0.22982092 -0.016832318 -0.09091487 0.30061653 0.17680281 -0.17523146 0.12034682 0.013665016 0.12284987 -0.05387026 -0.4513648 0.18248731 -0.13952872 0.13677253 -0.030559137 0.24715596 0.07533547 -0.22669765 0.13040389 -0.05765295 0.0044169724 0.33424518 -0.32890415 -0.25552177 -0.15285476 0.015547003 0.27940747 -0.051699284 0.040459566 0.08642923 -0.28904197 0.010772561 0.20316575 -0.11920377 -0.024076577 -0.10656565 0.027834862
53 0.3725737 -0.20295432 -0.14778596 -0.123808555 -0.241616 0.30845216 -0.1334028 0.030267116 -0.17529558 -0.12570292 0.29400676 0.115225196 0.08895221 0.2514933 0.46611434 0.09709107 0.3821284 0.4577435 0.34010935 -0.11968931 0.046862546 0.31390315 -0.026008282 -0.3936952 -0.14017044 -0.012697581 -0.01163289 0.061755747 0.20639658 -0.231744 -0.009382628 0.0019001444 0.14585048 0.2361416 0.21019557 -0.0674247 0.37529856 0.08986658 -0.22953083 0.012974709 -0.1808729 0.16186598 0.085804306 -0.16980349 0.07842299 -0.21004765 -0.440857 -0.23011188 0.22570615 0.046316624 0.17037518 0.029655725 0.121752866 0.15523362 0.16441552 0.12044796 0.31057537 -0.016189836 -0.12598146 -0.19599116 -0.13791364 -0.15854289 -0.19062275 0.03872967 0.122108154 0.02020687 0.11557217 0.1665812 0.1322426 -0.31187928 -0.026819287 -0.21406865 -0.55263454 -0.08418271 0.44190928 0.012263947 0.2181616 -0.06654641 -0.06587715 0.06923506 0.2101786 -0.075902686 0.1337119 0.29884973 0.099763654 0.08361015 0.19374508 -0.23400898 0.04514245 0.21571437 -0.027267527 -0.1966473 0.17653804 0.21426602 0.37046787 0.10380682 -0.12551032 -0.23082487 0.069486886 -0.22327746 -0.35402498 -0.1178107 -0.19953437 0.06260778 0.19179052 0.15154393 0.15131807 -0.16611679 -0.08068883 -0.2678202 -0.03755676 0.08853358 0.068359606 0.24358836 -0.18199913 0.031204965 0.2960114 0.23074625 0.13679855 -0.053172156 0.12855728 0.142074 -0.12931177 0.20105867 -0.08047347 0.014203274 -0.071514145 0.20573434
73 0.30424586 -0.2668029 -0.105818346 -0.108892106 -0.2992388 0.3022106 -0.13685189 0.090386465 -0.22676699 -0.14250642 0.31072977 0.13344723 -0.04774433 0.16966072 0.51635385 0.08586455 0.4761978 0.4457171 0.25632688 -0.1331336 -0.11442417 0.37617803 0.01401135 -0.4791488 -0.1325887 -0.18124865 0.0011998216 0.019618612 0.098111294 -0.2586955 0.03988187 -0.022522632 0.06636487 0.29488972 0.145817 -0.026108602 0.474959 0.06557501 -0.06550867 -0.013253571 -0.14617918 0.12522127 0.16113698 -0.12954515 0.038463317 -0.17035271 -0.3771326 -0.15252708 0.2388237 0.041235283 0.25673556 -0.07852159 0.098805234 0.13468741 0.21389708 0.13462171 0.38439167 -0.13709918 -0.042662393 -0.13379368 -0.11653112 -0.17389809 -0.19150712 0.015403345 0.15833229 0.054343987 0.0832109 0.23875025 0.15258157 -0.41548592 0.019004561 -0.18627697 -0.57186556 -0.13125128 0.4261163 -0.07001671 0.2337166 -0.09496041 -0.14815292 0.09643012 0.2089311 -0.017288908 0.16237088 0.38357213 0.008353634 0.15953867 0.27195567 -0.21899097 0.141572 0.1954332 0.02619002 -0.2914854 0.15624546 0.17033657 0.43050328 0.013341026 -0.15917169 -0.20403016 0.089351915 -0.22849706 -0.37039232 -0.11249004 -0.259572 0.09195008 0.17380224 0.109633945 0.17131987 -0.0849968 -0.08022525 -0.3683271 -0.023444984 0.06989037 0.07144111 0.3520968 -0.23609799 0.00013045347 0.39950457 0.31544432 0.155063 -0.064061575 0.13265313 0.20965606 -0.11843122 0.24387933 -0.10934502 0.07304256 -0.020185888 0.220302
65 0.41106138 -0.29817268 0.36414552 0.0026895185 0.18113382 0.07274992 0.052558735 -0.22211343 -0.15674306 -0.22754325 0.36872953 -0.226406 0.0014043925 0.11996067 0.014218981 -0.025693564 -0.35717764 0.110224895 0.038761962 -0.16668643 0.32296282 0.2911909 -0.16001031 -0.11067785 -0.32049814 -0.11224994 -0.113522716 0.1283787 0.23223887 0.12186949 -0.33970675 0.28044462 0.5304528 0.046315648 0.30209917 -0.2234001 -0.0035284522 0.42708376 -0.34059167 0.15154968 -0.16796869 0.10862451 -0.13700236 0.041964788 0.3953254 -0.17390525 -0.16194735 -0.45457575 -0.009305503 0.3924591 -0.11706955 0.240556 0.021809338 -0.051221307 -0.16816162 0.15659736 0.24215287 -0.08340808 -0.28942636 -0.02899835 0.13219179 -0.21303539 0.044850912 -0.18718341 -0.027860314 -0.048176296 -0.26481226 0.03131321 0.15853058 0.10392409 0.21483028 0.1053955 -0.31828633 -0.16397217 0.03196018 0.065473 -0.14423046 0.090728305 -0.058724705 0.39064786 0.030814853 -0.31560323 0.29708114 0.16433905 0.2921062 -0.019624868 0.06134448 -0.3447704 -0.025890267 0.18804541 -0.290456 -0.030835921 0.07422404 0.13021058 0.2706888 0.34337327 -0.07052367 -0.15019041 -0.26195097 -0.33774805 0.023363214 -0.03378383 -0.3019718 -0.22908655 -0.28381583 -0.0055159116 0.14258988 -0.06966454 -0.10934181 0.035631426 0.061994918 -0.077176616 0.31065804 -0.0014013328 -0.07027891 -0.25784665 0.16321409 0.095942855 -0.12245942 0.22522163 0.040251285 -0.23929848 -0.11841518 0.041024514 0.124366485 0.37824202 -0.17770861 0.17208637
56 0.52771354 0.039263315 0.27963865 -0.0012266584 0.14595911 0.2822989 -0.38314417 0.10078868 0.15625396 -0.23712449 -0.16089308 -0.06073422 -0.08987276 -0.031404644 0.31971875 0.048797745 -0.04133072 0.09327547 -0.17246203 -0.19314554 0.35675704 -0.22148308 0.3866903 -0.15575801 -0.008058076 0.16511633 -0.11343376 0.14116172 -0.016752928 -0.000590418 -0.04353071 0.1460625 0.1574396 0.0054441453 -0.05754009 -0.20150006 0.11026192 0.00863154 0.38147146 -0.3277872 0.008477513 0.22215961 0.058428288 -0.45849383 0.29179272 -0.068255536 -0.017363517 -0.2945759 -0.2598533 0.20604306 0.096995026 0.024332888 0.4605589 0.059721082 0.004908773 -0.2502547 0.3422019 0.034329314 -0.15770225 -0.11136272 -0.017176615 0.17115553 -0.08006029 0.5169795 0.021673525 0.19736508 -0.1875425 -0.13459218 -0.02502735 -0.42833543 -0.011457708 0.19551241 -0.24212417 0.28701657 -0.17800729 -0.39498276 -0.100247316 0.18646437 -0.246953 0.31089774 0.28336483 -0.3514672 0.28810346 0.49849707 0.20028558 -0.20634155 0.639681 -0.14450656 0.55601007 0.13526803 -0.19536856 -0.49516225 0.008967227 -0.13061154 0.07222872 -0.094862565 -0.40228945 -0.3069403 -0.3712816 -0.37151936 0.2630642 0.12959415 -0.04649014 0.41260195 -0.12711942 -0.36778194 -0.44167438 0.008361435 -0.052450377 0.14582466 0.048897583 -0.11239407 0.2482742 -0.10590259 -0.15470408 -0.16379988 0.109314 0.15845992 0.13808744 -0.30226594 -0.06864478 -0.32358423 0.096413955 -0.045898233 -0.13600047 -0.01790254 -0.46667162 0.17422515
52 0.1311683 -0.22142254 0.085496776 0.05472171 0.0011339355 -0.0791137 0.024522852 -0.11086162 0.038456224 -0.0039616264 0.119030416 -0.062916294 -0.037603453 0.0141443 0.20342204 0.03868196 0.087798744 0.13251276 0.076702036 -0.09538661 -0.025554147 0.32258224 -0.2016826 -0.026248079 -0.19046193 0.019012835 -0.058211863 0.011529447 0.0607472 0.026878264 -0.29482812 0.007356378 0.19620323 0.342939 -0.08333264 -0.036305137 0.33802146 0.20556235 -0.03331781 0.038200404 -0.17870173 0.0091358945 0.05013846 0.09601369 0.13331935 -0.16056588 -0.078400515 -0.20333894 0.098493025 0.07955062 -0.027829744 -0.04059833 0.18659611 0.07616902 -0.040501148 0.28330868 0.1397538 -0.022229033 -0.11051952 0.03706666 0.12543361 -0.040618416 0.0899547 -0.08331258 0.06554091 0.08668107 0.056342904 -0.07877372 -0.04973463 -0.21543361 0.118778 -0.03518107 -0.25408393 -0.21238433 0.045265727 -0.027875993 0.025452696 0.0825992 -0.122958794 0.07247323 -0.084399395 -0.17489153 0.064883985 0.17222129 -0.1291422 0.07634503 0.21174426 -0.12171066 0.036230884 0.09181377 -0.15379532 -0.12171813 -0.13503833 0.0025989553 0.12668748 0.09713932 -0.03333104 -0.108993284 -0.058189772 0.009237344 -0.07388356 -0.13371013 0.13287054 0.057393167 0.09172015 0.05321974 0.2129239 -0.16555463 -0.067231454 -0.092043415 0.086478 0.10699295 0.15146185 -0.0438478 0.036734562 -0.124919854 -0.0821891 0.08378139 -0.0034195774 0.031584606 -0.1505491 -0.06608371 -0.086446114 0.10222876 0.1263269 0.0058432594 -0.069677345 0.06476096
55 0.28614867 -0.41262847 0.5623556 -0.05508457 0.006534101 -0.054850355 -0.2552034 0.01948578 -0.11870866 0.060321264 0.06258024 -0.27338374 -0.21822296 -0.024006981 0.4224712 -0.25108346 0.123203926 0.09585365 -0.26784825 -0.09839024 0.001234571 0.119209446 0.21958685 0.07433085 -0.22355497 0.15098408 0.10257301 0.21112233 0.14013582 -0.27423626 -0.21925619 0.20624463 -0.20255436 0.22133592 -0.11474853 0.027739601 0.31577322 0.09202532 0.28160313 -0.13413218 0.035390396 0.0050009685 -0.1175707 -0.119705096 0.002410025 -0.20525421 0.17555782 -0.243529 -0.015639609 -0.002701389 0.35551473 -0.24367106 0.34629312 0.08577234 0.08222831 0.038171478 0.24933867 -0.025061302 -0.006488038 0.026809001 0.31239763 0.0709123 0.21593188 -0.006882815 0.093130395 -0.027038015 0.003808495 -0.15673248 0.02827158 -0.31213257 -0.073170826 0.22599931 -0.06758003 0.002517959 0.09464513 -0.054465372 0.04509625 0.041911934 -0.19511259 0.18462469 -0.028399251 -0.08785131 0.10834929 0.12292796 -0.019977203 -0.080007195 0.4868532 -0.25513834 0.101959676 0.4281859 -0.09122281 -0.18477143 0.04168563 -0.18399806 -0.01867981 0.08323653 -0.47031924 -0.04064403 -0.09681648 0.10218004 0.11703975 -0.0806722 0.087708004 -0.075281404 0.011490276 -0.0006739752 -0.3548835 0.12640283 0.21948943 0.07008275 -0.043023195 -0.16586472 0.20089683 -0.021569688 -0.089895405 0.19016968 -0.031296637 0.22109264 -0.03322917 0.14854157 0.093147576 0.09811465 -0.06339401 -0.09424735 0.066215776 -0.11782077 -0.114990115 -0.014545012
50 0.1494797 -0.17131342 -0.05768371 -0.043027706 0.060757518 -0.08781893 -0.0453201 0.06785323 -0.10203172 0.17275581 0.1344234 -0.11573291 -0.032878064 0.20843212 0.28448847 0.18970618 0.34329227 0.077427775 0.15448603 0.07563782 -0.20082511 0.23757182 -0.018944645 -0.17162792 -0.09341615 0.23984793 0.06390528 0.11109263 0.11353157 -0.014092281 -0.1648968 0.08538344 0.14824425 0.43364173 -0.13727981 0.013798613 0.12550028 0.08163658 -0.121226944 -0.00044540642 -0.15038845 -0.077676736 0.04487703 -0.045666113 0.14381339 -0.19755411 -0.3342814 -0.060686357 0.00012269289 0.0059489715 0.08940069 -0.10773205 0.32963145 0.10798774 0.004989743 0.17668279 0.17121395 0.17552172 0.02340608 -0.007668735 -0.12726514 0.07003864 0.06396064 -0.12526529 0.22605711 0.06340668 0.100516655 -0.083994895 -0.066694595 -0.26159915 0.26693845 -0.1314811 -0.18906032 -0.33192372 0.22730468 -0.076428495 0.039278794 -0.19504875 -0.26982713 0.03427409 -0.09508409 -0.27360922 -0.16663453 0.31184196 0.08024815 -0.21658246 0.14276609 -0.18154052 0.045613248 0.1538053 -0.07633222 -0.3176261 0.06647563 0.022288948 0.19536617 0.2262651 -0.07860388 -0.17017895 0.16191195 -0.19641128 -0.005108672 -0.34405872 -0.06091545 -0.02488635 0.13122797 -0.040672846 0.005437771 0.07408079 -0.062653266 0.083727464 0.010771209 0.08894229 0.12523496 -0.036696363 -0.1777237 0.06382188 -0.07270449 0.008026379 0.114278704 -0.039764274 0.077346675 -0.044036247 -0.023930833 0.1835688 -0.041208897 -0.01574403 -0.0790274 0.13074465
57 0.19913618 -0.3007327 0.46215975 -0.068291314 -0.072277956 -0.11503337 -0.16019544 0.05433361 -0.065418474 -0.045596574 0.01925672 -0.10660297 -0.10060776 -0.15493567 0.2951 -0.2096842 0.062189743 0.14773062 -0.0599336 -0.10537799 0.3050122 0.098856956 0.21147214 -0.034423046 -0.1664921 0.097690895 -0.11810107 0.12056098 0.28507262 -0.29435107 -0.26904842 0.08396661 -0.16290085 0.009639572 -0.08952252 0.010662658 0.27873108 -0.024745958 0.27967256 -0.17648424 0.09335425 0.19316004 -0.078549 -0.19230987 0.05284797 -0.00601245 0.09906633 -0.34189945 0.008614728 -0.056648914 0.27761754 -0.19440028 0.2051518 0.048313342 0.17689349 -0.008183161 0.04535716 0.009946603 -0.09422314 -0.15513353 0.330249 -0.081178 0.16716827 0.17085525 0.12420499 -0.086879395 0.046144225 0.0258406 0.27015612 -0.36571434 -0.06855829 0.1298883 -0.30686623 0.0073262956 -0.07036866 -0.11806941 0.0021212162 0.068915606 -0.0042486056 0.2706004 0.07299072 -0.059566185 0.26330876 0.30912778 0.14810927 -0.03634971 0.4510984 -0.27635103 0.27123266 0.19262317 -0.1140698 -0.13965666 -0.051841963 -0.07617798 0.23152891 -0.020533053 -0.32203418 -0.12320138 -0.08682417 0.025374267 -0.012587409 0.14514783 0.12298787 -0.03728978 -0.0661194 -0.005276012 -0.17706132 0.015105586 0.16234566 -0.110574916 0.020299574 -0.13729407 0.023666732 0.04382792 -0.13606147 0.043990877 0.21232492 0.23706292 0.10068354 0.031674128 -0.10703086 0.009338793 -0.00069133413 -0.061354257 -0.04702531 -0.13821511 -0.20289752 -0.09720544
74 -0.3785407 -0.5394798 0.14516948 0.035938006 0.29278785 -0.23305394 -0.060885422 0.12595606 -0.12870374 -0.15458743 0.13307819 -0.44082642 -0.14360166 -0.13185304 0.053481143 0.15987395 0.051734585 0.038762752 -0.643162 0.6417162 0.3110267 0.040827792 0.14129692 -0.29507226 -0.08981209 0.2999907 -0.4078935 0.023076702 0.045706976 0.41345733 -0.70333624 0.22324815 -0.44029096 -0.25219217 -0.09317935 0.3269328 -0.065611035 -0.16112883 0.24217485 -0.13764803 -0.15947169 0.054686375 0.14321771 -0.046194196 0.2932796 0.4905652 0.21199125 -0.2101342 -0.5826349 0.21657583 0.56143016 0.09589511 0.3932076 0.14401779 -0.08041255 -0.0075720386 0.64594275 0.34340146 -0.073110506 0.54869545 -0.36955327 -0.069274634 0.112273686 -0.44571263 0.28692535 0.26458523 -0.13493344 0.1558883 -0.35238072 0.4874192 0.07311823 -0.32532567 -0.29122233 -0.34459788 -0.005949318 -0.5831876 -0.5841237 0.20387435 -0.020833695 0.54800993 -0.16762502 0.092667356 0.22114004 0.46262628 0.5916513 0.40611878 0.23721799 -0.03973091 0.15985125 0.027007548 -0.07923912 -0.30766788 0.13717206 0.14540024 0.08040458 0.1062963 -0.28418294 -0.5387116 -0.3203697 -0.7168585 -0.8278983 0.271525 -0.30144078 0.58597445 0.14684372 -0.22526275 -0.29273853 -0.38143435 0.18097557 -0.5809028 -0.11255895 -0.4989011 -0.21868742 0.2892895 -0.41542643 -0.123559594 0.054426104 0.22720487 0.23076585 0.2690523 -0.23441304 -0.31051263 -0.25330442 0.34264323 -0.10044266 0.13916814 -0.14924401 0.17376965
60 0.4227912 -0.34092468 0.34343603 0.017047655 0.17156227 0.06805166 0.062288318 -0.22741142 -0.1759564 -0.22216864 0.38686803 -0.28081805 0.11229734 0.14472665 0.08899422 -0.07873382 -0.35922322 0.17458034 0.0036479342 -0.15227912 0.30064017 0.26964486 -0.23367193 -0.11631498 -0.3161822 -0.14634518 -0.074223936 0.13340892 0.2292881 0.14442323 -0.3549533 0.34751981 0.50712365 0.020761931 0.33713335 -0.2087054 0.036294617 0.4511867 -0.33309105 0.16577493 -0.15376127 0.06415429 -0.066061 0.12788022 0.3370328 -0.19055834 -0.17395903 -0.43335053 0.035480313 0.44574726 -0.07623486 0.27050847 0.029933035 -0.03481733 -0.1945743 0.11482964 0.2232177 -0.041998558 -0.30084938 0.047556847 0.10237533 -0.2076678 -0.017175667 -0.28111538 -0.032480724 -0.08372027 -0.36806273 0.05279241 0.0720864 0.11904624 0.22540869 0.0003624652 -0.37213594 -0.182191 0.16222322 0.011550671 -0.1573613 -0.029070893 -0.00483009 0.43812042 0.08261944 -0.31544477 0.29464585 0.16415441 0.29833743 0.04585534 0.068241335 -0.37444168 -0.03959168 0.21569134 -0.31925526 0.053377435 0.14351374 0.19823691 0.21733081 0.42220438 -0.08885694 -0.16834536 -0.3302006 -0.36613026 -0.06868258 -0.037701555 -0.34403482 -0.24653487 -0.31563273 0.05640493 0.11819073 -0.053122368 -0.089928634 0.07560106 0.061708447 -0.07025891 0.3296065 0.07227592 -0.14466327 -0.2666948 0.11370652 0.09260873 -0.14659111 0.21626309 0.101761505 -0.19141819 -0.13052659 0.084090345 0.134696 0.38979277 -0.13736852 0.21920116
63 0.44063228 -0.3518708 0.3775646 -0.048709735 0.23308569 -0.0067528985 0.043043796 -0.21523646 -0.14628673 -0.19331513 0.39646617 -0.27943334 0.050115734 0.14229101 -0.00896683 -0.03503763 -0.392832 0.114563905 0.021603212 -0.08945233 0.39854974 0.2588128 -0.19539338 -0.055338103 -0.31496972 -0.056359187 -0.13819416 0.10905379 0.2973623 0.18189934 -0.41826352 0.33582225 0.5408323 0.049824577 0.34824386 -0.18546957 -0.014167861 0.4451715 -0.35682023 0.17848493 -0.1872107 0.0965616 -0.15765193 0.08569602 0.37947106 -0.19661531 -0.17458114 -0.47505277 -0.024829648 0.4225623 -0.089221396 0.3268738 0.026089948 -0.020360963 -0.24445342 0.16549462 0.25404447 0.010803273 -0.29081234 -0.0006287027 0.08448637 -0.22236297 0.08870491 -0.26058918 -0.049756747 -0.072802424 -0.2482934 0.031084988 0.12474349 0.19637844 0.2064912 0.06207974 -0.3234402 -0.18072237 0.0515536 0.041754004 -0.19444643 0.05552064 -0.024583781 0.40218887 0.014965411 -0.36058328 0.29831302 0.15590176 0.34138247 0.014268904 0.019884245 -0.36960524 -0.09599058 0.2371991 -0.31627205 0.023894558 0.07992238 0.14733727 0.20987594 0.38859305 -0.068640955 -0.17443939 -0.26272693 -0.3649264 -0.033694338 -0.012220261 -0.32062316 -0.24928956 -0.26705253 0.034657277 0.11349644 -0.093722776 -0.11732517 0.05955183 0.03508138 -0.0673559 0.27446902 -0.041188736 -0.07224079 -0.27333763 0.11537813 0.04996537 -0.12552464 0.30025074 0.04504602 -0.29682267 -0.1463011 0.029618185 0.14316097 0.37349525 -0.19223435 0.20580128
